<?xml version="1.0"?>
<opencv_storage>
<cascade>
  <stageType>BOOST</stageType>
  <featureType>HAAR</featureType>
  <height>30</height>
  <width>30</width>
  <stageParams>
    <boostType>GAB</boostType>
    <minHitRate>9.9900001287460327e-01</minHitRate>
    <maxFalseAlarm>3.0000001192092896e-01</maxFalseAlarm>
    <weightTrimRate>9.4999999999999996e-01</weightTrimRate>
    <maxDepth>1</maxDepth>
    <maxWeakCount>100</maxWeakCount></stageParams>
  <featureParams>
    <maxCatCount>0</maxCatCount>
    <featSize>1</featSize>
    <mode>BASIC</mode></featureParams>
  <stageNum>10</stageNum>
  <stages>
    <!-- stage 0 -->
    <_>
      <maxWeakCount>8</maxWeakCount>
      <stageThreshold>-1.3475271463394165e+00</stageThreshold>
      <weakClassifiers>
        <_>
          <internalNodes>
            0 -1 6 -3.3514626324176788e-02</internalNodes>
          <leafValues>
            -6.9109946489334106e-01 8.2485878467559814e-01</leafValues></_>
        <_>
          <internalNodes>
            0 -1 94 7.7560362406075001e-03</internalNodes>
          <leafValues>
            -5.7179486751556396e-01 6.3690805435180664e-01</leafValues></_>
        <_>
          <internalNodes>
            0 -1 45 6.0379942879080772e-03</internalNodes>
          <leafValues>
            -4.0026226639747620e-01 8.0170619487762451e-01</leafValues></_>
        <_>
          <internalNodes>
            0 -1 84 -2.0710873650386930e-04</internalNodes>
          <leafValues>
            5.8950251340866089e-01 -3.7186735868453979e-01</leafValues></_>
        <_>
          <internalNodes>
            0 -1 92 -1.0368214920163155e-02</internalNodes>
          <leafValues>
            7.2447979450225830e-01 -2.9554459452629089e-01</leafValues></_>
        <_>
          <internalNodes>
            0 -1 20 -1.9635507836937904e-02</internalNodes>
          <leafValues>
            7.3638099431991577e-01 -3.3745062351226807e-01</leafValues></_>
        <_>
          <internalNodes>
            0 -1 19 3.8922280073165894e-02</internalNodes>
          <leafValues>
            -3.7332123517990112e-01 8.3413416147232056e-01</leafValues></_>
        <_>
          <internalNodes>
            0 -1 65 -2.0497869700193405e-03</internalNodes>
          <leafValues>
            6.7378890514373779e-01 -2.9109033942222595e-01</leafValues></_></weakClassifiers></_>
    <!-- stage 1 -->
    <_>
      <maxWeakCount>6</maxWeakCount>
      <stageThreshold>-1.3155877590179443e+00</stageThreshold>
      <weakClassifiers>
        <_>
          <internalNodes>
            0 -1 107 -2.0224915817379951e-02</internalNodes>
          <leafValues>
            -6.9561481475830078e-01 9.1691392660140991e-01</leafValues></_>
        <_>
          <internalNodes>
            0 -1 91 -2.3279629647731781e-02</internalNodes>
          <leafValues>
            -9.4503593444824219e-01 3.2402244210243225e-01</leafValues></_>
        <_>
          <internalNodes>
            0 -1 104 -7.2156758978962898e-03</internalNodes>
          <leafValues>
            5.5899679660797119e-01 -6.0622560977935791e-01</leafValues></_>
        <_>
          <internalNodes>
            0 -1 68 -5.4183758038561791e-05</internalNodes>
          <leafValues>
            4.7367331385612488e-01 -4.8286226391792297e-01</leafValues></_>
        <_>
          <internalNodes>
            0 -1 73 -5.4656332358717918e-03</internalNodes>
          <leafValues>
            5.8158147335052490e-01 -3.0157300829887390e-01</leafValues></_>
        <_>
          <internalNodes>
            0 -1 69 6.9242134690284729e-02</internalNodes>
          <leafValues>
            -3.3265307545661926e-01 7.1868062019348145e-01</leafValues></_></weakClassifiers></_>
    <!-- stage 2 -->
    <_>
      <maxWeakCount>8</maxWeakCount>
      <stageThreshold>-1.2703450918197632e+00</stageThreshold>
      <weakClassifiers>
        <_>
          <internalNodes>
            0 -1 41 -2.8669608756899834e-02</internalNodes>
          <leafValues>
            -7.1872305870056152e-01 9.7653961181640625e-01</leafValues></_>
        <_>
          <internalNodes>
            0 -1 15 -9.0919643640518188e-02</internalNodes>
          <leafValues>
            7.9088246822357178e-01 -3.8929417729377747e-01</leafValues></_>
        <_>
          <internalNodes>
            0 -1 105 -5.0504282116889954e-02</internalNodes>
          <leafValues>
            -2.6892614364624023e-01 9.5202994346618652e-01</leafValues></_>
        <_>
          <internalNodes>
            0 -1 30 6.7059256252832711e-05</internalNodes>
          <leafValues>
            3.3933582901954651e-01 -9.5042872428894043e-01</leafValues></_>
        <_>
          <internalNodes>
            0 -1 52 3.6728521808981895e-03</internalNodes>
          <leafValues>
            2.4117456376552582e-01 -8.2248455286026001e-01</leafValues></_>
        <_>
          <internalNodes>
            0 -1 34 -2.1481417934410274e-04</internalNodes>
          <leafValues>
            -9.5186269283294678e-01 1.9756962358951569e-01</leafValues></_>
        <_>
          <internalNodes>
            0 -1 1 2.6153321960009634e-04</internalNodes>
          <leafValues>
            1.8628782033920288e-01 -8.6743533611297607e-01</leafValues></_>
        <_>
          <internalNodes>
            0 -1 0 -2.7062001754529774e-04</internalNodes>
          <leafValues>
            -8.1573951244354248e-01 2.0588952302932739e-01</leafValues></_></weakClassifiers></_>
    <!-- stage 3 -->
    <_>
      <maxWeakCount>9</maxWeakCount>
      <stageThreshold>-1.6163042783737183e+00</stageThreshold>
      <weakClassifiers>
        <_>
          <internalNodes>
            0 -1 8 -2.5200078263878822e-02</internalNodes>
          <leafValues>
            -7.0106762647628784e-01 7.6595747470855713e-01</leafValues></_>
        <_>
          <internalNodes>
            0 -1 30 -8.3776591054629534e-05</internalNodes>
          <leafValues>
            -8.8562947511672974e-01 3.1478992104530334e-01</leafValues></_>
        <_>
          <internalNodes>
            0 -1 13 -5.4068237543106079e-02</internalNodes>
          <leafValues>
            6.8843239545822144e-01 -4.0474948287010193e-01</leafValues></_>
        <_>
          <internalNodes>
            0 -1 106 -2.3507572710514069e-02</internalNodes>
          <leafValues>
            6.6017985343933105e-01 -3.7614837288856506e-01</leafValues></_>
        <_>
          <internalNodes>
            0 -1 38 -3.8855876482557505e-05</internalNodes>
          <leafValues>
            -7.9259425401687622e-01 3.1184491515159607e-01</leafValues></_>
        <_>
          <internalNodes>
            0 -1 58 7.7224984765052795e-02</internalNodes>
          <leafValues>
            -3.0308941006660461e-01 6.7951607704162598e-01</leafValues></_>
        <_>
          <internalNodes>
            0 -1 25 -3.7825278937816620e-02</internalNodes>
          <leafValues>
            6.8393468856811523e-01 -3.7398549914360046e-01</leafValues></_>
        <_>
          <internalNodes>
            0 -1 27 -2.1397645468823612e-04</internalNodes>
          <leafValues>
            -9.4306981563568115e-01 2.4862845242023468e-01</leafValues></_>
        <_>
          <internalNodes>
            0 -1 17 1.0473960638046265e-01</internalNodes>
          <leafValues>
            -3.3252716064453125e-01 6.2213033437728882e-01</leafValues></_></weakClassifiers></_>
    <!-- stage 4 -->
    <_>
      <maxWeakCount>11</maxWeakCount>
      <stageThreshold>-1.4557816982269287e+00</stageThreshold>
      <weakClassifiers>
        <_>
          <internalNodes>
            0 -1 28 -2.7703445404767990e-02</internalNodes>
          <leafValues>
            -6.8333333730697632e-01 5.6666666269302368e-01</leafValues></_>
        <_>
          <internalNodes>
            0 -1 111 -1.7024853732436895e-03</internalNodes>
          <leafValues>
            4.9027383327484131e-01 -5.2289801836013794e-01</leafValues></_>
        <_>
          <internalNodes>
            0 -1 110 2.7216218877583742e-03</internalNodes>
          <leafValues>
            -3.5194242000579834e-01 5.9263026714324951e-01</leafValues></_>
        <_>
          <internalNodes>
            0 -1 82 -1.5268912538886070e-02</internalNodes>
          <leafValues>
            2.6483803987503052e-01 -7.3825991153717041e-01</leafValues></_>
        <_>
          <internalNodes>
            0 -1 57 -4.2157713323831558e-03</internalNodes>
          <leafValues>
            -8.3163899183273315e-01 2.4330745637416840e-01</leafValues></_>
        <_>
          <internalNodes>
            0 -1 43 1.2282447423785925e-03</internalNodes>
          <leafValues>
            2.6177662611007690e-01 -7.8041601181030273e-01</leafValues></_>
        <_>
          <internalNodes>
            0 -1 117 -3.4054999705404043e-03</internalNodes>
          <leafValues>
            -3.5434484481811523e-01 7.3186820745468140e-01</leafValues></_>
        <_>
          <internalNodes>
            0 -1 64 -2.2757958620786667e-02</internalNodes>
          <leafValues>
            -8.7797933816909790e-01 2.4119874835014343e-01</leafValues></_>
        <_>
          <internalNodes>
            0 -1 50 2.9463000595569611e-02</internalNodes>
          <leafValues>
            1.6719932854175568e-01 -8.0562418699264526e-01</leafValues></_>
        <_>
          <internalNodes>
            0 -1 18 -3.7138068582862616e-03</internalNodes>
          <leafValues>
            -7.6785469055175781e-01 2.1938736736774445e-01</leafValues></_>
        <_>
          <internalNodes>
            0 -1 14 1.2486862018704414e-02</internalNodes>
          <leafValues>
            1.0804600268602371e-01 -9.8280012607574463e-01</leafValues></_></weakClassifiers></_>
    <!-- stage 5 -->
    <_>
      <maxWeakCount>13</maxWeakCount>
      <stageThreshold>-1.3206686973571777e+00</stageThreshold>
      <weakClassifiers>
        <_>
          <internalNodes>
            0 -1 118 -4.7162575647234917e-03</internalNodes>
          <leafValues>
            -6.6951566934585571e-01 4.5861297845840454e-01</leafValues></_>
        <_>
          <internalNodes>
            0 -1 9 -2.1681631915271282e-03</internalNodes>
          <leafValues>
            -7.6803249120712280e-01 2.0728988945484161e-01</leafValues></_>
        <_>
          <internalNodes>
            0 -1 40 -3.2311405986547470e-02</internalNodes>
          <leafValues>
            7.0208400487899780e-01 -3.0715438723564148e-01</leafValues></_>
        <_>
          <internalNodes>
            0 -1 77 -4.0898149018175900e-04</internalNodes>
          <leafValues>
            4.3954887986183167e-01 -4.6580326557159424e-01</leafValues></_>
        <_>
          <internalNodes>
            0 -1 32 1.3519305735826492e-02</internalNodes>
          <leafValues>
            -2.4213905632495880e-01 6.4192235469818115e-01</leafValues></_>
        <_>
          <internalNodes>
            0 -1 24 -1.5742069110274315e-02</internalNodes>
          <leafValues>
            6.1153423786163330e-01 -2.7540957927703857e-01</leafValues></_>
        <_>
          <internalNodes>
            0 -1 54 1.3686081767082214e-01</internalNodes>
          <leafValues>
            -3.0725353956222534e-01 6.1125457286834717e-01</leafValues></_>
        <_>
          <internalNodes>
            0 -1 47 -1.0310657671652734e-04</internalNodes>
          <leafValues>
            -8.6911153793334961e-01 1.9577972590923309e-01</leafValues></_>
        <_>
          <internalNodes>
            0 -1 53 3.8205473683774471e-03</internalNodes>
          <leafValues>
            1.4940312504768372e-01 -8.6855643987655640e-01</leafValues></_>
        <_>
          <internalNodes>
            0 -1 87 -5.8679096400737762e-03</internalNodes>
          <leafValues>
            5.7367241382598877e-01 -3.0859246850013733e-01</leafValues></_>
        <_>
          <internalNodes>
            0 -1 99 2.3208749480545521e-03</internalNodes>
          <leafValues>
            -3.1074464321136475e-01 5.9519606828689575e-01</leafValues></_>
        <_>
          <internalNodes>
            0 -1 11 4.6836852561682463e-04</internalNodes>
          <leafValues>
            2.2740387916564941e-01 -9.1397827863693237e-01</leafValues></_>
        <_>
          <internalNodes>
            0 -1 33 -4.8551030457019806e-02</internalNodes>
          <leafValues>
            9.4514764845371246e-02 -9.1950607299804688e-01</leafValues></_></weakClassifiers></_>
    <!-- stage 6 -->
    <_>
      <maxWeakCount>16</maxWeakCount>
      <stageThreshold>-1.5757268667221069e+00</stageThreshold>
      <weakClassifiers>
        <_>
          <internalNodes>
            0 -1 42 -1.1000288650393486e-02</internalNodes>
          <leafValues>
            -6.2770563364028931e-01 6.5217393636703491e-01</leafValues></_>
        <_>
          <internalNodes>
            0 -1 10 -9.1783646494150162e-03</internalNodes>
          <leafValues>
            6.6178119182586670e-01 -2.8767776489257813e-01</leafValues></_>
        <_>
          <internalNodes>
            0 -1 71 -8.7530887685716152e-04</internalNodes>
          <leafValues>
            6.5985530614852905e-01 -3.0109000205993652e-01</leafValues></_>
        <_>
          <internalNodes>
            0 -1 96 -9.9135519121773541e-05</internalNodes>
          <leafValues>
            3.6825683712959290e-01 -4.9895542860031128e-01</leafValues></_>
        <_>
          <internalNodes>
            0 -1 113 -1.0131501039722934e-04</internalNodes>
          <leafValues>
            -7.5609433650970459e-01 1.7111273109912872e-01</leafValues></_>
        <_>
          <internalNodes>
            0 -1 60 -7.9536391422152519e-03</internalNodes>
          <leafValues>
            -8.5348743200302124e-01 1.6158039867877960e-01</leafValues></_>
        <_>
          <internalNodes>
            0 -1 112 -4.3630905565805733e-05</internalNodes>
          <leafValues>
            -6.8112403154373169e-01 1.3248249888420105e-01</leafValues></_>
        <_>
          <internalNodes>
            0 -1 59 -8.0899586901068687e-03</internalNodes>
          <leafValues>
            6.5623599290847778e-01 -2.0340442657470703e-01</leafValues></_>
        <_>
          <internalNodes>
            0 -1 109 2.1908410417381674e-05</internalNodes>
          <leafValues>
            -4.1777762770652771e-01 3.4230023622512817e-01</leafValues></_>
        <_>
          <internalNodes>
            0 -1 55 -7.5762521009892225e-04</internalNodes>
          <leafValues>
            6.2362080812454224e-01 -2.1038311719894409e-01</leafValues></_>
        <_>
          <internalNodes>
            0 -1 119 -5.2803690778091550e-05</internalNodes>
          <leafValues>
            -7.1420872211456299e-01 2.0033575594425201e-01</leafValues></_>
        <_>
          <internalNodes>
            0 -1 62 2.1917156875133514e-02</internalNodes>
          <leafValues>
            1.6593031585216522e-01 -6.5313005447387695e-01</leafValues></_>
        <_>
          <internalNodes>
            0 -1 90 7.2669854853302240e-04</internalNodes>
          <leafValues>
            -4.0211200714111328e-01 3.4119701385498047e-01</leafValues></_>
        <_>
          <internalNodes>
            0 -1 2 -1.5525922644883394e-03</internalNodes>
          <leafValues>
            -8.8929265737533569e-01 1.1370556056499481e-01</leafValues></_>
        <_>
          <internalNodes>
            0 -1 75 7.2444579564034939e-04</internalNodes>
          <leafValues>
            -2.7153566479682922e-01 4.9358966946601868e-01</leafValues></_>
        <_>
          <internalNodes>
            0 -1 63 -1.5760890673846006e-03</internalNodes>
          <leafValues>
            5.4510176181793213e-01 -2.2754584252834320e-01</leafValues></_></weakClassifiers></_>
    <!-- stage 7 -->
    <_>
      <maxWeakCount>14</maxWeakCount>
      <stageThreshold>-1.3588149547576904e+00</stageThreshold>
      <weakClassifiers>
        <_>
          <internalNodes>
            0 -1 98 -5.3779330104589462e-02</internalNodes>
          <leafValues>
            2.6465365290641785e-01 -6.9263607263565063e-01</leafValues></_>
        <_>
          <internalNodes>
            0 -1 80 -1.9811957608908415e-03</internalNodes>
          <leafValues>
            3.6982885003089905e-01 -4.1460275650024414e-01</leafValues></_>
        <_>
          <internalNodes>
            0 -1 102 -2.9382370412349701e-02</internalNodes>
          <leafValues>
            6.5317791700363159e-01 -2.0950421690940857e-01</leafValues></_>
        <_>
          <internalNodes>
            0 -1 22 1.1306181550025940e-02</internalNodes>
          <leafValues>
            -3.3613073825836182e-01 5.2107977867126465e-01</leafValues></_>
        <_>
          <internalNodes>
            0 -1 39 4.5114025124348700e-04</internalNodes>
          <leafValues>
            1.6446027159690857e-01 -9.4609010219573975e-01</leafValues></_>
        <_>
          <internalNodes>
            0 -1 37 -2.0563067664625123e-05</internalNodes>
          <leafValues>
            2.3997609317302704e-01 -5.6460320949554443e-01</leafValues></_>
        <_>
          <internalNodes>
            0 -1 21 2.3627337068319321e-03</internalNodes>
          <leafValues>
            1.3401646912097931e-01 -8.5032838582992554e-01</leafValues></_>
        <_>
          <internalNodes>
            0 -1 101 -3.6596807185560465e-03</internalNodes>
          <leafValues>
            3.6503461003303528e-01 -3.5297301411628723e-01</leafValues></_>
        <_>
          <internalNodes>
            0 -1 5 -1.1830653529614210e-03</internalNodes>
          <leafValues>
            -7.7972602844238281e-01 1.5111799538135529e-01</leafValues></_>
        <_>
          <internalNodes>
            0 -1 3 5.1504228031262755e-04</internalNodes>
          <leafValues>
            1.8772651255130768e-01 -7.1171212196350098e-01</leafValues></_>
        <_>
          <internalNodes>
            0 -1 36 1.0339290834963322e-02</internalNodes>
          <leafValues>
            -2.1678930521011353e-01 7.0755791664123535e-01</leafValues></_>
        <_>
          <internalNodes>
            0 -1 67 -3.7225181586109102e-04</internalNodes>
          <leafValues>
            3.7888148427009583e-01 -3.8691455125808716e-01</leafValues></_>
        <_>
          <internalNodes>
            0 -1 79 -3.0389577150344849e-03</internalNodes>
          <leafValues>
            7.4439311027526855e-01 -1.7724137008190155e-01</leafValues></_>
        <_>
          <internalNodes>
            0 -1 89 1.1312481947243214e-03</internalNodes>
          <leafValues>
            -2.2447013854980469e-01 4.7313991189002991e-01</leafValues></_></weakClassifiers></_>
    <!-- stage 8 -->
    <_>
      <maxWeakCount>20</maxWeakCount>
      <stageThreshold>-1.6018420457839966e+00</stageThreshold>
      <weakClassifiers>
        <_>
          <internalNodes>
            0 -1 12 -1.3609968125820160e-02</internalNodes>
          <leafValues>
            -6.0365295410156250e-01 3.9753085374832153e-01</leafValues></_>
        <_>
          <internalNodes>
            0 -1 108 4.3271081522107124e-03</internalNodes>
          <leafValues>
            -5.0696903467178345e-01 3.2365545630455017e-01</leafValues></_>
        <_>
          <internalNodes>
            0 -1 35 3.4297618549317122e-03</internalNodes>
          <leafValues>
            1.7853130400180817e-01 -7.5382226705551147e-01</leafValues></_>
        <_>
          <internalNodes>
            0 -1 56 2.7420059777796268e-03</internalNodes>
          <leafValues>
            -2.0652668178081512e-01 6.1625570058822632e-01</leafValues></_>
        <_>
          <internalNodes>
            0 -1 46 9.4452174380421638e-04</internalNodes>
          <leafValues>
            -3.3855834603309631e-01 4.1430491209030151e-01</leafValues></_>
        <_>
          <internalNodes>
            0 -1 114 -4.5108416088623926e-05</internalNodes>
          <leafValues>
            -6.3679766654968262e-01 1.9681784510612488e-01</leafValues></_>
        <_>
          <internalNodes>
            0 -1 81 -1.1928252642974257e-03</internalNodes>
          <leafValues>
            1.2610054016113281e-01 -7.9881352186203003e-01</leafValues></_>
        <_>
          <internalNodes>
            0 -1 115 7.6387543231248856e-05</internalNodes>
          <leafValues>
            1.5679343044757843e-01 -5.9689819812774658e-01</leafValues></_>
        <_>
          <internalNodes>
            0 -1 74 -6.8847863003611565e-03</internalNodes>
          <leafValues>
            5.2966827154159546e-01 -2.2258757054805756e-01</leafValues></_>
        <_>
          <internalNodes>
            0 -1 51 9.3343310058116913e-02</internalNodes>
          <leafValues>
            -1.5637806057929993e-01 8.4376299381256104e-01</leafValues></_>
        <_>
          <internalNodes>
            0 -1 26 -6.6791683435440063e-02</internalNodes>
          <leafValues>
            -9.0657860040664673e-01 1.8668998777866364e-01</leafValues></_>
        <_>
          <internalNodes>
            0 -1 29 7.2153931250795722e-04</internalNodes>
          <leafValues>
            3.2171804457902908e-02 -8.9549922943115234e-01</leafValues></_>
        <_>
          <internalNodes>
            0 -1 16 1.4660165179520845e-03</internalNodes>
          <leafValues>
            -2.3583132028579712e-01 4.2601171135902405e-01</leafValues></_>
        <_>
          <internalNodes>
            0 -1 7 -7.2288930416107178e-02</internalNodes>
          <leafValues>
            6.3008123636245728e-01 -2.3425315320491791e-01</leafValues></_>
        <_>
          <internalNodes>
            0 -1 4 -3.1236258801072836e-03</internalNodes>
          <leafValues>
            -2.3340985178947449e-01 5.2151036262512207e-01</leafValues></_>
        <_>
          <internalNodes>
            0 -1 78 4.5032126945443451e-04</internalNodes>
          <leafValues>
            -3.3614325523376465e-01 3.6449027061462402e-01</leafValues></_>
        <_>
          <internalNodes>
            0 -1 72 4.5730965211987495e-03</internalNodes>
          <leafValues>
            1.3634620606899261e-01 -7.8888547420501709e-01</leafValues></_>
        <_>
          <internalNodes>
            0 -1 76 -4.5113433152437210e-03</internalNodes>
          <leafValues>
            -5.7665097713470459e-01 1.6227710247039795e-01</leafValues></_>
        <_>
          <internalNodes>
            0 -1 83 3.3207435626536608e-04</internalNodes>
          <leafValues>
            -3.7659201025962830e-01 3.4458544850349426e-01</leafValues></_>
        <_>
          <internalNodes>
            0 -1 97 -2.3882086679805070e-05</internalNodes>
          <leafValues>
            2.9610130190849304e-01 -4.5862472057342529e-01</leafValues></_></weakClassifiers></_>
    <!-- stage 9 -->
    <_>
      <maxWeakCount>16</maxWeakCount>
      <stageThreshold>-1.5063537359237671e+00</stageThreshold>
      <weakClassifiers>
        <_>
          <internalNodes>
            0 -1 93 -6.2428247183561325e-03</internalNodes>
          <leafValues>
            3.5220125317573547e-01 -5.1776647567749023e-01</leafValues></_>
        <_>
          <internalNodes>
            0 -1 95 -2.2875563445268199e-05</internalNodes>
          <leafValues>
            2.5065329670906067e-01 -5.3111076354980469e-01</leafValues></_>
        <_>
          <internalNodes>
            0 -1 23 -8.7126332800835371e-04</internalNodes>
          <leafValues>
            -7.3221909999847412e-01 1.5750341117382050e-01</leafValues></_>
        <_>
          <internalNodes>
            0 -1 48 5.8224527165293694e-03</internalNodes>
          <leafValues>
            1.7860203981399536e-01 -6.4459103345870972e-01</leafValues></_>
        <_>
          <internalNodes>
            0 -1 61 -2.3219656199216843e-02</internalNodes>
          <leafValues>
            6.4696079492568970e-01 -1.9687570631504059e-01</leafValues></_>
        <_>
          <internalNodes>
            0 -1 85 -4.9137100577354431e-02</internalNodes>
          <leafValues>
            4.3740949034690857e-01 -3.2140135765075684e-01</leafValues></_>
        <_>
          <internalNodes>
            0 -1 88 -1.3738417765125632e-03</internalNodes>
          <leafValues>
            5.6380867958068848e-01 -2.6730239391326904e-01</leafValues></_>
        <_>
          <internalNodes>
            0 -1 31 -2.0456155762076378e-03</internalNodes>
          <leafValues>
            9.3771696090698242e-02 -9.4294637441635132e-01</leafValues></_>
        <_>
          <internalNodes>
            0 -1 49 -1.7908319830894470e-02</internalNodes>
          <leafValues>
            -7.9844754934310913e-01 1.0847546160221100e-01</leafValues></_>
        <_>
          <internalNodes>
            0 -1 44 8.4369072283152491e-05</internalNodes>
          <leafValues>
            9.4100281596183777e-02 -9.1617286205291748e-01</leafValues></_>
        <_>
          <internalNodes>
            0 -1 70 -1.4178196433931589e-03</internalNodes>
          <leafValues>
            4.1638603806495667e-01 -2.5710767507553101e-01</leafValues></_>
        <_>
          <internalNodes>
            0 -1 66 1.7936944961547852e-02</internalNodes>
          <leafValues>
            1.5177343785762787e-01 -7.0131033658981323e-01</leafValues></_>
        <_>
          <internalNodes>
            0 -1 100 -9.0734299737960100e-04</internalNodes>
          <leafValues>
            3.0677744746208191e-01 -3.5606497526168823e-01</leafValues></_>
        <_>
          <internalNodes>
            0 -1 103 1.0184548795223236e-02</internalNodes>
          <leafValues>
            -1.8277294933795929e-01 6.1998254060745239e-01</leafValues></_>
        <_>
          <internalNodes>
            0 -1 116 -3.9652464911341667e-03</internalNodes>
          <leafValues>
            -2.4373969435691833e-01 5.7815265655517578e-01</leafValues></_>
        <_>
          <internalNodes>
            0 -1 86 4.5811116695404053e-02</internalNodes>
          <leafValues>
            -1.7524886131286621e-01 6.9547647237777710e-01</leafValues></_></weakClassifiers></_></stages>
  <features>
    <_>
      <rects>
        <_>
          0 0 2 5 -1.</_>
        <_>
          1 0 1 5 2.</_></rects>
      <tilted>0</tilted></_>
    <_>
      <rects>
        <_>
          0 0 2 6 -1.</_>
        <_>
          1 0 1 6 2.</_></rects>
      <tilted>0</tilted></_>
    <_>
      <rects>
        <_>
          0 0 2 6 -1.</_>
        <_>
          0 3 2 3 2.</_></rects>
      <tilted>0</tilted></_>
    <_>
      <rects>
        <_>
          0 0 8 1 -1.</_>
        <_>
          4 0 4 1 2.</_></rects>
      <tilted>0</tilted></_>
    <_>
      <rects>
        <_>
          0 0 12 1 -1.</_>
        <_>
          4 0 4 1 2.</_></rects>
      <tilted>0</tilted></_>
    <_>
      <rects>
        <_>
          0 0 10 1 -1.</_>
        <_>
          5 0 5 1 2.</_></rects>
      <tilted>0</tilted></_>
    <_>
      <rects>
        <_>
          0 0 7 30 -1.</_>
        <_>
          0 10 7 10 2.</_></rects>
      <tilted>0</tilted></_>
    <_>
      <rects>
        <_>
          0 0 16 13 -1.</_>
        <_>
          8 0 8 13 2.</_></rects>
      <tilted>0</tilted></_>
    <_>
      <rects>
        <_>
          0 0 30 5 -1.</_>
        <_>
          10 0 10 5 2.</_></rects>
      <tilted>0</tilted></_>
    <_>
      <rects>
        <_>
          0 2 1 28 -1.</_>
        <_>
          0 16 1 14 2.</_></rects>
      <tilted>0</tilted></_>
    <_>
      <rects>
        <_>
          0 2 10 6 -1.</_>
        <_>
          0 2 5 3 2.</_>
        <_>
          5 5 5 3 2.</_></rects>
      <tilted>0</tilted></_>
    <_>
      <rects>
        <_>
          0 3 1 4 -1.</_>
        <_>
          0 5 1 2 2.</_></rects>
      <tilted>0</tilted></_>
    <_>
      <rects>
        <_>
          0 3 5 27 -1.</_>
        <_>
          0 12 5 9 2.</_></rects>
      <tilted>0</tilted></_>
    <_>
      <rects>
        <_>
          0 4 6 24 -1.</_>
        <_>
          3 4 3 24 2.</_></rects>
      <tilted>0</tilted></_>
    <_>
      <rects>
        <_>
          0 5 2 24 -1.</_>
        <_>
          0 17 2 12 2.</_></rects>
      <tilted>0</tilted></_>
    <_>
      <rects>
        <_>
          0 5 8 22 -1.</_>
        <_>
          4 5 4 22 2.</_></rects>
      <tilted>0</tilted></_>
    <_>
      <rects>
        <_>
          0 5 10 1 -1.</_>
        <_>
          5 5 5 1 2.</_></rects>
      <tilted>0</tilted></_>
    <_>
      <rects>
        <_>
          0 5 12 24 -1.</_>
        <_>
          6 5 6 24 2.</_></rects>
      <tilted>0</tilted></_>
    <_>
      <rects>
        <_>
          0 6 1 24 -1.</_>
        <_>
          0 18 1 12 2.</_></rects>
      <tilted>0</tilted></_>
    <_>
      <rects>
        <_>
          0 8 8 18 -1.</_>
        <_>
          4 8 4 18 2.</_></rects>
      <tilted>0</tilted></_>
    <_>
      <rects>
        <_>
          0 9 6 11 -1.</_>
        <_>
          3 9 3 11 2.</_></rects>
      <tilted>0</tilted></_>
    <_>
      <rects>
        <_>
          0 10 1 12 -1.</_>
        <_>
          0 16 1 6 2.</_></rects>
      <tilted>0</tilted></_>
    <_>
      <rects>
        <_>
          0 10 6 7 -1.</_>
        <_>
          3 10 3 7 2.</_></rects>
      <tilted>0</tilted></_>
    <_>
      <rects>
        <_>
          0 13 1 8 -1.</_>
        <_>
          0 17 1 4 2.</_></rects>
      <tilted>0</tilted></_>
    <_>
      <rects>
        <_>
          0 16 6 12 -1.</_>
        <_>
          3 16 3 12 2.</_></rects>
      <tilted>0</tilted></_>
    <_>
      <rects>
        <_>
          0 21 14 9 -1.</_>
        <_>
          7 21 7 9 2.</_></rects>
      <tilted>0</tilted></_>
    <_>
      <rects>
        <_>
          0 21 30 4 -1.</_>
        <_>
          15 21 15 4 2.</_></rects>
      <tilted>0</tilted></_>
    <_>
      <rects>
        <_>
          0 24 1 2 -1.</_>
        <_>
          0 25 1 1 2.</_></rects>
      <tilted>0</tilted></_>
    <_>
      <rects>
        <_>
          0 25 30 5 -1.</_>
        <_>
          10 25 10 5 2.</_></rects>
      <tilted>0</tilted></_>
    <_>
      <rects>
        <_>
          0 28 4 2 -1.</_>
        <_>
          2 28 2 2 2.</_></rects>
      <tilted>0</tilted></_>
    <_>
      <rects>
        <_>
          1 2 2 2 -1.</_>
        <_>
          1 2 1 1 2.</_>
        <_>
          2 3 1 1 2.</_></rects>
      <tilted>0</tilted></_>
    <_>
      <rects>
        <_>
          1 4 12 1 -1.</_>
        <_>
          5 4 4 1 2.</_></rects>
      <tilted>0</tilted></_>
    <_>
      <rects>
        <_>
          1 11 4 12 -1.</_>
        <_>
          3 11 2 12 2.</_></rects>
      <tilted>0</tilted></_>
    <_>
      <rects>
        <_>
          1 16 24 3 -1.</_>
        <_>
          1 17 24 1 2.</_></rects>
      <tilted>0</tilted></_>
    <_>
      <rects>
        <_>
          1 27 2 2 -1.</_>
        <_>
          1 28 2 1 2.</_></rects>
      <tilted>0</tilted></_>
    <_>
      <rects>
        <_>
          2 0 28 2 -1.</_>
        <_>
          16 0 14 2 2.</_></rects>
      <tilted>0</tilted></_>
    <_>
      <rects>
        <_>
          2 26 18 4 -1.</_>
        <_>
          2 26 9 2 2.</_>
        <_>
          11 28 9 2 2.</_></rects>
      <tilted>0</tilted></_>
    <_>
      <rects>
        <_>
          2 27 28 3 -1.</_>
        <_>
          16 27 14 3 2.</_></rects>
      <tilted>0</tilted></_>
    <_>
      <rects>
        <_>
          2 28 1 2 -1.</_>
        <_>
          2 29 1 1 2.</_></rects>
      <tilted>0</tilted></_>
    <_>
      <rects>
        <_>
          2 29 4 1 -1.</_>
        <_>
          4 29 2 1 2.</_></rects>
      <tilted>0</tilted></_>
    <_>
      <rects>
        <_>
          3 0 3 18 -1.</_>
        <_>
          3 9 3 9 2.</_></rects>
      <tilted>0</tilted></_>
    <_>
      <rects>
        <_>
          3 0 27 4 -1.</_>
        <_>
          12 0 9 4 2.</_></rects>
      <tilted>0</tilted></_>
    <_>
      <rects>
        <_>
          3 0 27 5 -1.</_>
        <_>
          12 0 9 5 2.</_></rects>
      <tilted>0</tilted></_>
    <_>
      <rects>
        <_>
          3 0 26 1 -1.</_>
        <_>
          16 0 13 1 2.</_></rects>
      <tilted>0</tilted></_>
    <_>
      <rects>
        <_>
          3 1 2 2 -1.</_>
        <_>
          3 1 1 1 2.</_>
        <_>
          4 2 1 1 2.</_></rects>
      <tilted>0</tilted></_>
    <_>
      <rects>
        <_>
          3 5 12 4 -1.</_>
        <_>
          3 5 6 2 2.</_>
        <_>
          9 7 6 2 2.</_></rects>
      <tilted>0</tilted></_>
    <_>
      <rects>
        <_>
          3 23 4 3 -1.</_>
        <_>
          5 23 2 3 2.</_></rects>
      <tilted>0</tilted></_>
    <_>
      <rects>
        <_>
          3 28 2 2 -1.</_>
        <_>
          3 28 1 1 2.</_>
        <_>
          4 29 1 1 2.</_></rects>
      <tilted>0</tilted></_>
    <_>
      <rects>
        <_>
          4 0 26 4 -1.</_>
        <_>
          17 0 13 4 2.</_></rects>
      <tilted>0</tilted></_>
    <_>
      <rects>
        <_>
          4 4 26 2 -1.</_>
        <_>
          17 4 13 2 2.</_></rects>
      <tilted>0</tilted></_>
    <_>
      <rects>
        <_>
          4 10 26 13 -1.</_>
        <_>
          17 10 13 13 2.</_></rects>
      <tilted>0</tilted></_>
    <_>
      <rects>
        <_>
          4 18 26 12 -1.</_>
        <_>
          4 24 26 6 2.</_></rects>
      <tilted>0</tilted></_>
    <_>
      <rects>
        <_>
          4 25 26 3 -1.</_>
        <_>
          17 25 13 3 2.</_></rects>
      <tilted>0</tilted></_>
    <_>
      <rects>
        <_>
          4 29 26 1 -1.</_>
        <_>
          17 29 13 1 2.</_></rects>
      <tilted>0</tilted></_>
    <_>
      <rects>
        <_>
          5 0 24 14 -1.</_>
        <_>
          5 7 24 7 2.</_></rects>
      <tilted>0</tilted></_>
    <_>
      <rects>
        <_>
          5 21 2 4 -1.</_>
        <_>
          5 21 1 2 2.</_>
        <_>
          6 23 1 2 2.</_></rects>
      <tilted>0</tilted></_>
    <_>
      <rects>
        <_>
          5 24 2 6 -1.</_>
        <_>
          5 27 2 3 2.</_></rects>
      <tilted>0</tilted></_>
    <_>
      <rects>
        <_>
          6 0 24 1 -1.</_>
        <_>
          18 0 12 1 2.</_></rects>
      <tilted>0</tilted></_>
    <_>
      <rects>
        <_>
          6 0 21 10 -1.</_>
        <_>
          6 5 21 5 2.</_></rects>
      <tilted>0</tilted></_>
    <_>
      <rects>
        <_>
          6 5 12 4 -1.</_>
        <_>
          6 5 6 2 2.</_>
        <_>
          12 7 6 2 2.</_></rects>
      <tilted>0</tilted></_>
    <_>
      <rects>
        <_>
          6 29 24 1 -1.</_>
        <_>
          18 29 12 1 2.</_></rects>
      <tilted>0</tilted></_>
    <_>
      <rects>
        <_>
          7 0 12 6 -1.</_>
        <_>
          7 3 12 3 2.</_></rects>
      <tilted>0</tilted></_>
    <_>
      <rects>
        <_>
          7 3 20 18 -1.</_>
        <_>
          7 3 10 9 2.</_>
        <_>
          17 12 10 9 2.</_></rects>
      <tilted>0</tilted></_>
    <_>
      <rects>
        <_>
          7 14 2 12 -1.</_>
        <_>
          7 14 1 6 2.</_>
        <_>
          8 20 1 6 2.</_></rects>
      <tilted>0</tilted></_>
    <_>
      <rects>
        <_>
          7 27 20 3 -1.</_>
        <_>
          17 27 10 3 2.</_></rects>
      <tilted>0</tilted></_>
    <_>
      <rects>
        <_>
          8 1 1 8 -1.</_>
        <_>
          8 5 1 4 2.</_></rects>
      <tilted>0</tilted></_>
    <_>
      <rects>
        <_>
          8 10 18 7 -1.</_>
        <_>
          17 10 9 7 2.</_></rects>
      <tilted>0</tilted></_>
    <_>
      <rects>
        <_>
          9 24 1 4 -1.</_>
        <_>
          9 26 1 2 2.</_></rects>
      <tilted>0</tilted></_>
    <_>
      <rects>
        <_>
          9 25 1 2 -1.</_>
        <_>
          9 26 1 1 2.</_></rects>
      <tilted>0</tilted></_>
    <_>
      <rects>
        <_>
          10 0 18 10 -1.</_>
        <_>
          10 5 18 5 2.</_></rects>
      <tilted>0</tilted></_>
    <_>
      <rects>
        <_>
          10 14 4 4 -1.</_>
        <_>
          10 14 2 2 2.</_>
        <_>
          12 16 2 2 2.</_></rects>
      <tilted>0</tilted></_>
    <_>
      <rects>
        <_>
          10 15 6 2 -1.</_>
        <_>
          10 15 3 1 2.</_>
        <_>
          13 16 3 1 2.</_></rects>
      <tilted>0</tilted></_>
    <_>
      <rects>
        <_>
          10 27 14 3 -1.</_>
        <_>
          17 27 7 3 2.</_></rects>
      <tilted>0</tilted></_>
    <_>
      <rects>
        <_>
          11 0 11 4 -1.</_>
        <_>
          11 2 11 2 2.</_></rects>
      <tilted>0</tilted></_>
    <_>
      <rects>
        <_>
          11 13 6 6 -1.</_>
        <_>
          11 13 3 3 2.</_>
        <_>
          14 16 3 3 2.</_></rects>
      <tilted>0</tilted></_>
    <_>
      <rects>
        <_>
          11 17 4 2 -1.</_>
        <_>
          11 18 4 1 2.</_></rects>
      <tilted>0</tilted></_>
    <_>
      <rects>
        <_>
          11 27 12 2 -1.</_>
        <_>
          17 27 6 2 2.</_></rects>
      <tilted>0</tilted></_>
    <_>
      <rects>
        <_>
          12 26 1 4 -1.</_>
        <_>
          12 28 1 2 2.</_></rects>
      <tilted>0</tilted></_>
    <_>
      <rects>
        <_>
          13 0 12 3 -1.</_>
        <_>
          19 0 6 3 2.</_></rects>
      <tilted>0</tilted></_>
    <_>
      <rects>
        <_>
          13 3 7 2 -1.</_>
        <_>
          13 4 7 1 2.</_></rects>
      <tilted>0</tilted></_>
    <_>
      <rects>
        <_>
          13 27 11 2 -1.</_>
        <_>
          13 28 11 1 2.</_></rects>
      <tilted>0</tilted></_>
    <_>
      <rects>
        <_>
          14 6 3 1 -1.</_>
        <_>
          15 6 1 1 2.</_></rects>
      <tilted>0</tilted></_>
    <_>
      <rects>
        <_>
          14 13 3 6 -1.</_>
        <_>
          15 13 1 6 2.</_></rects>
      <tilted>0</tilted></_>
    <_>
      <rects>
        <_>
          14 27 12 2 -1.</_>
        <_>
          14 27 6 1 2.</_>
        <_>
          20 28 6 1 2.</_></rects>
      <tilted>0</tilted></_>
    <_>
      <rects>
        <_>
          14 28 3 2 -1.</_>
        <_>
          14 29 3 1 2.</_></rects>
      <tilted>0</tilted></_>
    <_>
      <rects>
        <_>
          15 16 9 14 -1.</_>
        <_>
          15 23 9 7 2.</_></rects>
      <tilted>0</tilted></_>
    <_>
      <rects>
        <_>
          16 8 14 22 -1.</_>
        <_>
          23 8 7 22 2.</_></rects>
      <tilted>0</tilted></_>
    <_>
      <rects>
        <_>
          17 1 10 4 -1.</_>
        <_>
          17 1 5 2 2.</_>
        <_>
          22 3 5 2 2.</_></rects>
      <tilted>0</tilted></_>
    <_>
      <rects>
        <_>
          17 9 2 4 -1.</_>
        <_>
          17 11 2 2 2.</_></rects>
      <tilted>0</tilted></_>
    <_>
      <rects>
        <_>
          18 1 1 4 -1.</_>
        <_>
          18 3 1 2 2.</_></rects>
      <tilted>0</tilted></_>
    <_>
      <rects>
        <_>
          18 2 1 6 -1.</_>
        <_>
          18 5 1 3 2.</_></rects>
      <tilted>0</tilted></_>
    <_>
      <rects>
        <_>
          18 14 3 3 -1.</_>
        <_>
          18 15 3 1 2.</_></rects>
      <tilted>0</tilted></_>
    <_>
      <rects>
        <_>
          19 1 10 6 -1.</_>
        <_>
          19 1 5 3 2.</_>
        <_>
          24 4 5 3 2.</_></rects>
      <tilted>0</tilted></_>
    <_>
      <rects>
        <_>
          20 14 4 4 -1.</_>
        <_>
          22 14 2 4 2.</_></rects>
      <tilted>0</tilted></_>
    <_>
      <rects>
        <_>
          20 22 10 8 -1.</_>
        <_>
          20 22 5 4 2.</_>
        <_>
          25 26 5 4 2.</_></rects>
      <tilted>0</tilted></_>
    <_>
      <rects>
        <_>
          20 28 2 1 -1.</_>
        <_>
          21 28 1 1 2.</_></rects>
      <tilted>0</tilted></_>
    <_>
      <rects>
        <_>
          21 27 4 1 -1.</_>
        <_>
          23 27 2 1 2.</_></rects>
      <tilted>0</tilted></_>
    <_>
      <rects>
        <_>
          21 28 1 2 -1.</_>
        <_>
          21 29 1 1 2.</_></rects>
      <tilted>0</tilted></_>
    <_>
      <rects>
        <_>
          22 8 8 19 -1.</_>
        <_>
          26 8 4 19 2.</_></rects>
      <tilted>0</tilted></_>
    <_>
      <rects>
        <_>
          22 29 8 1 -1.</_>
        <_>
          26 29 4 1 2.</_></rects>
      <tilted>0</tilted></_>
    <_>
      <rects>
        <_>
          23 2 4 6 -1.</_>
        <_>
          23 2 2 3 2.</_>
        <_>
          25 5 2 3 2.</_></rects>
      <tilted>0</tilted></_>
    <_>
      <rects>
        <_>
          23 3 6 6 -1.</_>
        <_>
          23 3 3 3 2.</_>
        <_>
          26 6 3 3 2.</_></rects>
      <tilted>0</tilted></_>
    <_>
      <rects>
        <_>
          24 0 5 14 -1.</_>
        <_>
          24 7 5 7 2.</_></rects>
      <tilted>0</tilted></_>
    <_>
      <rects>
        <_>
          24 2 6 7 -1.</_>
        <_>
          27 2 3 7 2.</_></rects>
      <tilted>0</tilted></_>
    <_>
      <rects>
        <_>
          24 3 6 12 -1.</_>
        <_>
          24 3 3 6 2.</_>
        <_>
          27 9 3 6 2.</_></rects>
      <tilted>0</tilted></_>
    <_>
      <rects>
        <_>
          24 4 6 24 -1.</_>
        <_>
          24 12 6 8 2.</_></rects>
      <tilted>0</tilted></_>
    <_>
      <rects>
        <_>
          24 8 6 15 -1.</_>
        <_>
          27 8 3 15 2.</_></rects>
      <tilted>0</tilted></_>
    <_>
      <rects>
        <_>
          26 0 4 30 -1.</_>
        <_>
          26 10 4 10 2.</_></rects>
      <tilted>0</tilted></_>
    <_>
      <rects>
        <_>
          26 10 4 20 -1.</_>
        <_>
          26 10 2 10 2.</_>
        <_>
          28 20 2 10 2.</_></rects>
      <tilted>0</tilted></_>
    <_>
      <rects>
        <_>
          26 21 4 2 -1.</_>
        <_>
          26 21 2 1 2.</_>
        <_>
          28 22 2 1 2.</_></rects>
      <tilted>0</tilted></_>
    <_>
      <rects>
        <_>
          26 26 4 3 -1.</_>
        <_>
          28 26 2 3 2.</_></rects>
      <tilted>0</tilted></_>
    <_>
      <rects>
        <_>
          27 13 2 11 -1.</_>
        <_>
          28 13 1 11 2.</_></rects>
      <tilted>0</tilted></_>
    <_>
      <rects>
        <_>
          28 1 2 1 -1.</_>
        <_>
          29 1 1 1 2.</_></rects>
      <tilted>0</tilted></_>
    <_>
      <rects>
        <_>
          28 1 2 4 -1.</_>
        <_>
          28 1 1 2 2.</_>
        <_>
          29 3 1 2 2.</_></rects>
      <tilted>0</tilted></_>
    <_>
      <rects>
        <_>
          28 4 2 2 -1.</_>
        <_>
          28 4 1 1 2.</_>
        <_>
          29 5 1 1 2.</_></rects>
      <tilted>0</tilted></_>
    <_>
      <rects>
        <_>
          29 2 1 4 -1.</_>
        <_>
          29 4 1 2 2.</_></rects>
      <tilted>0</tilted></_>
    <_>
      <rects>
        <_>
          29 3 1 27 -1.</_>
        <_>
          29 12 1 9 2.</_></rects>
      <tilted>0</tilted></_>
    <_>
      <rects>
        <_>
          29 7 1 15 -1.</_>
        <_>
          29 12 1 5 2.</_></rects>
      <tilted>0</tilted></_>
    <_>
      <rects>
        <_>
          29 9 1 21 -1.</_>
        <_>
          29 16 1 7 2.</_></rects>
      <tilted>0</tilted></_>
    <_>
      <rects>
        <_>
          29 28 1 2 -1.</_>
        <_>
          29 29 1 1 2.</_></rects>
      <tilted>0</tilted></_></features></cascade>
</opencv_storage>
