<?xml version="1.0"?>
<opencv_storage>
<cascade>
  <stageType>BOOST</stageType>
  <featureType>HAAR</featureType>
  <height>40</height>
  <width>40</width>
  <stageParams>
    <boostType>GAB</boostType>
    <minHitRate>9.9500000476837158e-01</minHitRate>
    <maxFalseAlarm>5.0000000000000000e-01</maxFalseAlarm>
    <weightTrimRate>9.4999999999999996e-01</weightTrimRate>
    <maxDepth>1</maxDepth>
    <maxWeakCount>100</maxWeakCount></stageParams>
  <featureParams>
    <maxCatCount>0</maxCatCount>
    <featSize>1</featSize>
    <mode>BASIC</mode></featureParams>
  <stageNum>17</stageNum>
  <stages>
    <!-- stage 0 -->
    <_>
      <maxWeakCount>4</maxWeakCount>
      <stageThreshold>-6.3948012888431549e-02</stageThreshold>
      <weakClassifiers>
        <_>
          <internalNodes>
            0 -1 58 3.0113046523183584e-03</internalNodes>
          <leafValues>
            -3.7001898884773254e-01 8.7665200233459473e-01</leafValues></_>
        <_>
          <internalNodes>
            0 -1 89 4.2947670444846153e-03</internalNodes>
          <leafValues>
            -2.3056668043136597e-01 8.0933564901351929e-01</leafValues></_>
        <_>
          <internalNodes>
            0 -1 45 -1.8524208664894104e-01</internalNodes>
          <leafValues>
            -9.1846197843551636e-01 3.1498950719833374e-01</leafValues></_>
        <_>
          <internalNodes>
            0 -1 22 -2.4833388626575470e-02</internalNodes>
          <leafValues>
            2.9822155833244324e-01 -8.1825423240661621e-01</leafValues></_></weakClassifiers></_>
    <!-- stage 1 -->
    <_>
      <maxWeakCount>6</maxWeakCount>
      <stageThreshold>-6.0277837514877319e-01</stageThreshold>
      <weakClassifiers>
        <_>
          <internalNodes>
            0 -1 97 1.1733795981854200e-03</internalNodes>
          <leafValues>
            -4.0336135029792786e-01 8.1147539615631104e-01</leafValues></_>
        <_>
          <internalNodes>
            0 -1 116 9.2131904239067808e-06</internalNodes>
          <leafValues>
            -4.6176624298095703e-01 5.8565437793731689e-01</leafValues></_>
        <_>
          <internalNodes>
            0 -1 80 2.5693671777844429e-03</internalNodes>
          <leafValues>
            -3.0507183074951172e-01 7.9313355684280396e-01</leafValues></_>
        <_>
          <internalNodes>
            0 -1 88 -8.7812896817922592e-03</internalNodes>
          <leafValues>
            -9.5885211229324341e-01 2.2794228792190552e-01</leafValues></_>
        <_>
          <internalNodes>
            0 -1 26 -3.5578384995460510e-03</internalNodes>
          <leafValues>
            6.5340870618820190e-01 -3.3691158890724182e-01</leafValues></_>
        <_>
          <internalNodes>
            0 -1 14 3.6588862538337708e-02</internalNodes>
          <leafValues>
            -3.1392991542816162e-01 9.0068531036376953e-01</leafValues></_></weakClassifiers></_>
    <!-- stage 2 -->
    <_>
      <maxWeakCount>8</maxWeakCount>
      <stageThreshold>-9.0672278404235840e-01</stageThreshold>
      <weakClassifiers>
        <_>
          <internalNodes>
            0 -1 129 1.4866294804960489e-03</internalNodes>
          <leafValues>
            -2.9020980000495911e-01 8.9308178424835205e-01</leafValues></_>
        <_>
          <internalNodes>
            0 -1 62 -7.4378802673891187e-04</internalNodes>
          <leafValues>
            6.1710238456726074e-01 -4.0429416298866272e-01</leafValues></_>
        <_>
          <internalNodes>
            0 -1 103 -2.2309210151433945e-02</internalNodes>
          <leafValues>
            8.6781674623489380e-01 -2.4345891177654266e-01</leafValues></_>
        <_>
          <internalNodes>
            0 -1 98 -1.7469048034399748e-03</internalNodes>
          <leafValues>
            6.2642306089401245e-01 -4.3155145645141602e-01</leafValues></_>
        <_>
          <internalNodes>
            0 -1 55 2.0991272758692503e-03</internalNodes>
          <leafValues>
            -2.1140687167644501e-01 8.0002707242965698e-01</leafValues></_>
        <_>
          <internalNodes>
            0 -1 72 -1.3254128396511078e-02</internalNodes>
          <leafValues>
            7.0308399200439453e-01 -2.9706829786300659e-01</leafValues></_>
        <_>
          <internalNodes>
            0 -1 50 -3.1521059572696686e-03</internalNodes>
          <leafValues>
            6.3746219873428345e-01 -3.0148842930793762e-01</leafValues></_>
        <_>
          <internalNodes>
            0 -1 7 1.0693827643990517e-02</internalNodes>
          <leafValues>
            2.7260285615921021e-01 -7.9911136627197266e-01</leafValues></_></weakClassifiers></_>
    <!-- stage 3 -->
    <_>
      <maxWeakCount>8</maxWeakCount>
      <stageThreshold>-6.7280244827270508e-01</stageThreshold>
      <weakClassifiers>
        <_>
          <internalNodes>
            0 -1 85 2.1888804621994495e-03</internalNodes>
          <leafValues>
            -3.1115460395812988e-01 8.0487805604934692e-01</leafValues></_>
        <_>
          <internalNodes>
            0 -1 35 2.6409928686916828e-03</internalNodes>
          <leafValues>
            4.4738504290580750e-01 -6.8791633844375610e-01</leafValues></_>
        <_>
          <internalNodes>
            0 -1 71 -9.8354206420481205e-04</internalNodes>
          <leafValues>
            6.0257768630981445e-01 -3.5492065548896790e-01</leafValues></_>
        <_>
          <internalNodes>
            0 -1 20 2.7204694226384163e-02</internalNodes>
          <leafValues>
            -2.9190725088119507e-01 7.4361073970794678e-01</leafValues></_>
        <_>
          <internalNodes>
            0 -1 16 -2.2596470080316067e-03</internalNodes>
          <leafValues>
            7.0204836130142212e-01 -2.7590665221214294e-01</leafValues></_>
        <_>
          <internalNodes>
            0 -1 113 -2.1538665168918669e-04</internalNodes>
          <leafValues>
            7.3838222026824951e-01 -2.5591370463371277e-01</leafValues></_>
        <_>
          <internalNodes>
            0 -1 53 4.0570870041847229e-03</internalNodes>
          <leafValues>
            2.5886714458465576e-01 -8.0605399608612061e-01</leafValues></_>
        <_>
          <internalNodes>
            0 -1 4 6.5307289361953735e-02</internalNodes>
          <leafValues>
            2.1053163707256317e-01 -7.9838788509368896e-01</leafValues></_></weakClassifiers></_>
    <!-- stage 4 -->
    <_>
      <maxWeakCount>7</maxWeakCount>
      <stageThreshold>-7.5890189409255981e-01</stageThreshold>
      <weakClassifiers>
        <_>
          <internalNodes>
            0 -1 54 -3.5642739385366440e-03</internalNodes>
          <leafValues>
            7.5101488828659058e-01 -3.2622602581977844e-01</leafValues></_>
        <_>
          <internalNodes>
            0 -1 48 -7.0629613474011421e-03</internalNodes>
          <leafValues>
            -7.9091149568557739e-01 3.6774158477783203e-01</leafValues></_>
        <_>
          <internalNodes>
            0 -1 47 -2.8296853415668011e-03</internalNodes>
          <leafValues>
            5.2801442146301270e-01 -3.7816292047500610e-01</leafValues></_>
        <_>
          <internalNodes>
            0 -1 64 4.6267248690128326e-02</internalNodes>
          <leafValues>
            -2.8763145208358765e-01 8.6426287889480591e-01</leafValues></_>
        <_>
          <internalNodes>
            0 -1 106 1.7982524586841464e-03</internalNodes>
          <leafValues>
            -3.1330272555351257e-01 5.4189926385879517e-01</leafValues></_>
        <_>
          <internalNodes>
            0 -1 96 -1.1489347554743290e-02</internalNodes>
          <leafValues>
            7.7738910913467407e-01 -2.3323187232017517e-01</leafValues></_>
        <_>
          <internalNodes>
            0 -1 112 1.3303793966770172e-02</internalNodes>
          <leafValues>
            -1.9081471860408783e-01 8.7143588066101074e-01</leafValues></_></weakClassifiers></_>
    <!-- stage 5 -->
    <_>
      <maxWeakCount>8</maxWeakCount>
      <stageThreshold>-5.7929074764251709e-01</stageThreshold>
      <weakClassifiers>
        <_>
          <internalNodes>
            0 -1 128 1.0576630011200905e-03</internalNodes>
          <leafValues>
            -2.1025641262531281e-01 8.4269660711288452e-01</leafValues></_>
        <_>
          <internalNodes>
            0 -1 130 -1.5743752010166645e-04</internalNodes>
          <leafValues>
            -5.7651460170745850e-01 3.8427340984344482e-01</leafValues></_>
        <_>
          <internalNodes>
            0 -1 70 -2.0150573924183846e-02</internalNodes>
          <leafValues>
            6.2393295764923096e-01 -2.9058229923248291e-01</leafValues></_>
        <_>
          <internalNodes>
            0 -1 51 7.5171247590333223e-04</internalNodes>
          <leafValues>
            -4.1271334886550903e-01 4.8333677649497986e-01</leafValues></_>
        <_>
          <internalNodes>
            0 -1 132 -5.3381118923425674e-03</internalNodes>
          <leafValues>
            -7.8310263156890869e-01 2.5859072804450989e-01</leafValues></_>
        <_>
          <internalNodes>
            0 -1 119 2.1876702085137367e-02</internalNodes>
          <leafValues>
            1.3611611723899841e-01 -9.0643441677093506e-01</leafValues></_>
        <_>
          <internalNodes>
            0 -1 34 2.5784387253224850e-04</internalNodes>
          <leafValues>
            1.5742161870002747e-01 -7.4683898687362671e-01</leafValues></_>
        <_>
          <internalNodes>
            0 -1 56 1.1995319800917059e-04</internalNodes>
          <leafValues>
            -3.3339548110961914e-01 4.8582550883293152e-01</leafValues></_></weakClassifiers></_>
    <!-- stage 6 -->
    <_>
      <maxWeakCount>9</maxWeakCount>
      <stageThreshold>-5.5919301509857178e-01</stageThreshold>
      <weakClassifiers>
        <_>
          <internalNodes>
            0 -1 91 6.0773473232984543e-03</internalNodes>
          <leafValues>
            -2.3357664048671722e-01 8.0303031206130981e-01</leafValues></_>
        <_>
          <internalNodes>
            0 -1 73 4.2222230695188046e-04</internalNodes>
          <leafValues>
            -2.4023091793060303e-01 6.0839605331420898e-01</leafValues></_>
        <_>
          <internalNodes>
            0 -1 1 4.7636864474043250e-04</internalNodes>
          <leafValues>
            2.7504706382751465e-01 -6.0484540462493896e-01</leafValues></_>
        <_>
          <internalNodes>
            0 -1 105 5.3165527060627937e-03</internalNodes>
          <leafValues>
            -2.5221639871597290e-01 6.3183426856994629e-01</leafValues></_>
        <_>
          <internalNodes>
            0 -1 67 2.0324755460023880e-02</internalNodes>
          <leafValues>
            -3.3551445603370667e-01 6.4494472742080688e-01</leafValues></_>
        <_>
          <internalNodes>
            0 -1 52 -3.4203883842565119e-05</internalNodes>
          <leafValues>
            -5.2309107780456543e-01 3.4086811542510986e-01</leafValues></_>
        <_>
          <internalNodes>
            0 -1 74 -4.8205554485321045e-03</internalNodes>
          <leafValues>
            -7.0404016971588135e-01 2.0835722982883453e-01</leafValues></_>
        <_>
          <internalNodes>
            0 -1 95 -5.2617252804338932e-03</internalNodes>
          <leafValues>
            6.6408067941665649e-01 -2.8948968648910522e-01</leafValues></_>
        <_>
          <internalNodes>
            0 -1 32 -1.8497584387660027e-03</internalNodes>
          <leafValues>
            -8.8522243499755859e-01 2.5804805755615234e-01</leafValues></_></weakClassifiers></_>
    <!-- stage 7 -->
    <_>
      <maxWeakCount>9</maxWeakCount>
      <stageThreshold>-7.1810692548751831e-01</stageThreshold>
      <weakClassifiers>
        <_>
          <internalNodes>
            0 -1 109 4.5521359425038099e-04</internalNodes>
          <leafValues>
            -3.8734176754951477e-01 6.8265682458877563e-01</leafValues></_>
        <_>
          <internalNodes>
            0 -1 123 -9.7272507846355438e-03</internalNodes>
          <leafValues>
            -1. 2.7699840068817139e-01</leafValues></_>
        <_>
          <internalNodes>
            0 -1 17 -7.7904788777232170e-03</internalNodes>
          <leafValues>
            6.6478407382965088e-01 -3.5135680437088013e-01</leafValues></_>
        <_>
          <internalNodes>
            0 -1 44 3.2615989446640015e-02</internalNodes>
          <leafValues>
            2.5311282277107239e-01 -7.8460407257080078e-01</leafValues></_>
        <_>
          <internalNodes>
            0 -1 77 -3.2626944594085217e-03</internalNodes>
          <leafValues>
            6.5676170587539673e-01 -3.3271503448486328e-01</leafValues></_>
        <_>
          <internalNodes>
            0 -1 49 -3.2340814359486103e-03</internalNodes>
          <leafValues>
            -7.7770239114761353e-01 3.0569157004356384e-01</leafValues></_>
        <_>
          <internalNodes>
            0 -1 9 1.0841496987268329e-04</internalNodes>
          <leafValues>
            1.9793182611465454e-01 -6.4253878593444824e-01</leafValues></_>
        <_>
          <internalNodes>
            0 -1 39 1.1673139408230782e-02</internalNodes>
          <leafValues>
            -2.0667271316051483e-01 8.1617277860641479e-01</leafValues></_>
        <_>
          <internalNodes>
            0 -1 78 -4.1326589416712523e-04</internalNodes>
          <leafValues>
            6.0963875055313110e-01 -2.6331388950347900e-01</leafValues></_></weakClassifiers></_>
    <!-- stage 8 -->
    <_>
      <maxWeakCount>5</maxWeakCount>
      <stageThreshold>-4.4268554449081421e-01</stageThreshold>
      <weakClassifiers>
        <_>
          <internalNodes>
            0 -1 11 -4.4713173992931843e-03</internalNodes>
          <leafValues>
            7.2000002861022949e-01 -3.0131003260612488e-01</leafValues></_>
        <_>
          <internalNodes>
            0 -1 68 -2.7781892567873001e-02</internalNodes>
          <leafValues>
            -9.3110901117324829e-01 3.1123018264770508e-01</leafValues></_>
        <_>
          <internalNodes>
            0 -1 115 1.4613376697525382e-03</internalNodes>
          <leafValues>
            -4.7250854969024658e-01 4.4459033012390137e-01</leafValues></_>
        <_>
          <internalNodes>
            0 -1 19 3.3063709735870361e-02</internalNodes>
          <leafValues>
            -2.4630287289619446e-01 7.5573658943176270e-01</leafValues></_>
        <_>
          <internalNodes>
            0 -1 100 -1.9981900550192222e-05</internalNodes>
          <leafValues>
            -6.5089315176010132e-01 3.1155759096145630e-01</leafValues></_></weakClassifiers></_>
    <!-- stage 9 -->
    <_>
      <maxWeakCount>6</maxWeakCount>
      <stageThreshold>-9.3673771619796753e-01</stageThreshold>
      <weakClassifiers>
        <_>
          <internalNodes>
            0 -1 42 -8.1242788583040237e-03</internalNodes>
          <leafValues>
            7.6923078298568726e-01 -3.2916668057441711e-01</leafValues></_>
        <_>
          <internalNodes>
            0 -1 125 -5.5378288379870355e-05</internalNodes>
          <leafValues>
            -7.0553272962570190e-01 3.9370813965797424e-01</leafValues></_>
        <_>
          <internalNodes>
            0 -1 125 1.1196637206012383e-04</internalNodes>
          <leafValues>
            3.2572463154792786e-01 -6.5777313709259033e-01</leafValues></_>
        <_>
          <internalNodes>
            0 -1 8 1.1738961935043335e-01</internalNodes>
          <leafValues>
            -2.6986071467399597e-01 8.2718509435653687e-01</leafValues></_>
        <_>
          <internalNodes>
            0 -1 13 -7.8377220779657364e-03</internalNodes>
          <leafValues>
            6.7611163854598999e-01 -3.6588224768638611e-01</leafValues></_>
        <_>
          <internalNodes>
            0 -1 6 1.7603156447876245e-04</internalNodes>
          <leafValues>
            2.9223689436912537e-01 -8.2912218570709229e-01</leafValues></_></weakClassifiers></_>
    <!-- stage 10 -->
    <_>
      <maxWeakCount>9</maxWeakCount>
      <stageThreshold>-6.3409835100173950e-01</stageThreshold>
      <weakClassifiers>
        <_>
          <internalNodes>
            0 -1 57 -1.8191816052421927e-03</internalNodes>
          <leafValues>
            7.4117648601531982e-01 -3.7246048450469971e-01</leafValues></_>
        <_>
          <internalNodes>
            0 -1 37 2.1669478155672550e-04</internalNodes>
          <leafValues>
            3.2185372710227966e-01 -8.5756528377532959e-01</leafValues></_>
        <_>
          <internalNodes>
            0 -1 2 -3.8741799071431160e-03</internalNodes>
          <leafValues>
            5.6277692317962646e-01 -3.5856932401657104e-01</leafValues></_>
        <_>
          <internalNodes>
            0 -1 43 1.4940796792507172e-01</internalNodes>
          <leafValues>
            -2.7655780315399170e-01 7.7895557880401611e-01</leafValues></_>
        <_>
          <internalNodes>
            0 -1 31 9.7788608400151134e-05</internalNodes>
          <leafValues>
            3.1135305762290955e-01 -7.2603392601013184e-01</leafValues></_>
        <_>
          <internalNodes>
            0 -1 84 1.5190519392490387e-02</internalNodes>
          <leafValues>
            -3.0537724494934082e-01 6.3237476348876953e-01</leafValues></_>
        <_>
          <internalNodes>
            0 -1 81 9.7775422036647797e-03</internalNodes>
          <leafValues>
            -2.3521015048027039e-01 6.6804778575897217e-01</leafValues></_>
        <_>
          <internalNodes>
            0 -1 131 -5.0859031034633517e-05</internalNodes>
          <leafValues>
            -7.6397836208343506e-01 2.6845288276672363e-01</leafValues></_>
        <_>
          <internalNodes>
            0 -1 111 -5.2746187429875135e-04</internalNodes>
          <leafValues>
            -9.0795856714248657e-01 1.4159032702445984e-01</leafValues></_></weakClassifiers></_>
    <!-- stage 11 -->
    <_>
      <maxWeakCount>9</maxWeakCount>
      <stageThreshold>-9.1002368927001953e-01</stageThreshold>
      <weakClassifiers>
        <_>
          <internalNodes>
            0 -1 33 2.3011383600533009e-03</internalNodes>
          <leafValues>
            -2.4803149700164795e-01 7.5428569316864014e-01</leafValues></_>
        <_>
          <internalNodes>
            0 -1 99 2.8248154558241367e-03</internalNodes>
          <leafValues>
            -2.0162370800971985e-01 7.0298743247985840e-01</leafValues></_>
        <_>
          <internalNodes>
            0 -1 15 -2.2915026638656855e-03</internalNodes>
          <leafValues>
            -6.7937302589416504e-01 2.4847826361656189e-01</leafValues></_>
        <_>
          <internalNodes>
            0 -1 46 1.3310958165675402e-03</internalNodes>
          <leafValues>
            -2.9465073347091675e-01 5.3493475914001465e-01</leafValues></_>
        <_>
          <internalNodes>
            0 -1 12 -7.6798483729362488e-02</internalNodes>
          <leafValues>
            -7.7194714546203613e-01 1.8004065752029419e-01</leafValues></_>
        <_>
          <internalNodes>
            0 -1 63 3.7949450314044952e-02</internalNodes>
          <leafValues>
            1.9007217884063721e-01 -6.8063223361968994e-01</leafValues></_>
        <_>
          <internalNodes>
            0 -1 59 -3.8425214588642120e-03</internalNodes>
          <leafValues>
            -8.3963727951049805e-01 1.6747362911701202e-01</leafValues></_>
        <_>
          <internalNodes>
            0 -1 25 -5.6635792134329677e-05</internalNodes>
          <leafValues>
            -6.0567915439605713e-01 2.1259216964244843e-01</leafValues></_>
        <_>
          <internalNodes>
            0 -1 90 -3.4135974943637848e-02</internalNodes>
          <leafValues>
            6.4140111207962036e-01 -2.9367026686668396e-01</leafValues></_></weakClassifiers></_>
    <!-- stage 12 -->
    <_>
      <maxWeakCount>7</maxWeakCount>
      <stageThreshold>-8.4142667055130005e-01</stageThreshold>
      <weakClassifiers>
        <_>
          <internalNodes>
            0 -1 82 4.2655346915125847e-03</internalNodes>
          <leafValues>
            -3.7850466370582581e-01 7.2307693958282471e-01</leafValues></_>
        <_>
          <internalNodes>
            0 -1 5 -1.1719476606231183e-04</internalNodes>
          <leafValues>
            -5.4650110006332397e-01 4.4605007767677307e-01</leafValues></_>
        <_>
          <internalNodes>
            0 -1 41 -1.3293803203850985e-04</internalNodes>
          <leafValues>
            -7.5779443979263306e-01 2.4742999672889709e-01</leafValues></_>
        <_>
          <internalNodes>
            0 -1 118 1.4576537068933249e-04</internalNodes>
          <leafValues>
            1.7496505379676819e-01 -9.5555764436721802e-01</leafValues></_>
        <_>
          <internalNodes>
            0 -1 36 -4.9232557415962219e-02</internalNodes>
          <leafValues>
            -2.7194759249687195e-01 8.5096418857574463e-01</leafValues></_>
        <_>
          <internalNodes>
            0 -1 23 -7.0437355898320675e-03</internalNodes>
          <leafValues>
            6.4110040664672852e-01 -3.5180103778839111e-01</leafValues></_>
        <_>
          <internalNodes>
            0 -1 108 -7.1305345045402646e-05</internalNodes>
          <leafValues>
            -7.0761853456497192e-01 2.9000446200370789e-01</leafValues></_></weakClassifiers></_>
    <!-- stage 13 -->
    <_>
      <maxWeakCount>9</maxWeakCount>
      <stageThreshold>-8.5569685697555542e-01</stageThreshold>
      <weakClassifiers>
        <_>
          <internalNodes>
            0 -1 92 1.7108367756009102e-03</internalNodes>
          <leafValues>
            -2.6011559367179871e-01 7.7939039468765259e-01</leafValues></_>
        <_>
          <internalNodes>
            0 -1 27 4.6640975597256329e-06</internalNodes>
          <leafValues>
            -5.0095868110656738e-01 4.4208219647407532e-01</leafValues></_>
        <_>
          <internalNodes>
            0 -1 0 -4.3198320781812072e-04</internalNodes>
          <leafValues>
            4.5193389058113098e-01 -3.4679740667343140e-01</leafValues></_>
        <_>
          <internalNodes>
            0 -1 102 -2.3088380694389343e-02</internalNodes>
          <leafValues>
            -1.7549268901348114e-01 8.6236459016799927e-01</leafValues></_>
        <_>
          <internalNodes>
            0 -1 114 -1.0974152246490121e-03</internalNodes>
          <leafValues>
            4.8934784531593323e-01 -3.4547621011734009e-01</leafValues></_>
        <_>
          <internalNodes>
            0 -1 120 5.0138228107243776e-04</internalNodes>
          <leafValues>
            2.0188547670841217e-01 -7.6840263605117798e-01</leafValues></_>
        <_>
          <internalNodes>
            0 -1 75 1.3638323172926903e-02</internalNodes>
          <leafValues>
            -2.6539936661720276e-01 6.9927263259887695e-01</leafValues></_>
        <_>
          <internalNodes>
            0 -1 87 -1.9335562828928232e-03</internalNodes>
          <leafValues>
            6.1695772409439087e-01 -2.5283271074295044e-01</leafValues></_>
        <_>
          <internalNodes>
            0 -1 28 9.2370188212953508e-05</internalNodes>
          <leafValues>
            2.1969988942146301e-01 -7.2402691841125488e-01</leafValues></_></weakClassifiers></_>
    <!-- stage 14 -->
    <_>
      <maxWeakCount>9</maxWeakCount>
      <stageThreshold>-6.7281258106231689e-01</stageThreshold>
      <weakClassifiers>
        <_>
          <internalNodes>
            0 -1 93 -5.0832228735089302e-03</internalNodes>
          <leafValues>
            7.5319147109985352e-01 -2.5646123290061951e-01</leafValues></_>
        <_>
          <internalNodes>
            0 -1 30 5.2950585086364299e-05</internalNodes>
          <leafValues>
            -4.1161122918128967e-01 4.6424931287765503e-01</leafValues></_>
        <_>
          <internalNodes>
            0 -1 122 4.7125095079536550e-06</internalNodes>
          <leafValues>
            -5.5007767677307129e-01 3.0163645744323730e-01</leafValues></_>
        <_>
          <internalNodes>
            0 -1 61 -3.9700821042060852e-02</internalNodes>
          <leafValues>
            7.3155415058135986e-01 -2.1897712349891663e-01</leafValues></_>
        <_>
          <internalNodes>
            0 -1 83 -1.4498418895527720e-03</internalNodes>
          <leafValues>
            5.8076131343841553e-01 -2.7080157399177551e-01</leafValues></_>
        <_>
          <internalNodes>
            0 -1 21 1.5425743767991662e-03</internalNodes>
          <leafValues>
            1.7395250499248505e-01 -7.7876538038253784e-01</leafValues></_>
        <_>
          <internalNodes>
            0 -1 10 -2.4250278249382973e-02</internalNodes>
          <leafValues>
            -7.8492909669876099e-01 1.6540984809398651e-01</leafValues></_>
        <_>
          <internalNodes>
            0 -1 94 -1.8530748784542084e-03</internalNodes>
          <leafValues>
            5.8214366436004639e-01 -2.9040172696113586e-01</leafValues></_>
        <_>
          <internalNodes>
            0 -1 101 8.4017537301406264e-04</internalNodes>
          <leafValues>
            1.3444145023822784e-01 -9.2671352624893188e-01</leafValues></_></weakClassifiers></_>
    <!-- stage 15 -->
    <_>
      <maxWeakCount>10</maxWeakCount>
      <stageThreshold>-6.6891044378280640e-01</stageThreshold>
      <weakClassifiers>
        <_>
          <internalNodes>
            0 -1 38 -1.9242154667153955e-03</internalNodes>
          <leafValues>
            6.7233008146286011e-01 -3.9583334326744080e-01</leafValues></_>
        <_>
          <internalNodes>
            0 -1 126 -2.6821559004019946e-05</internalNodes>
          <leafValues>
            -6.0314893722534180e-01 3.4317862987518311e-01</leafValues></_>
        <_>
          <internalNodes>
            0 -1 66 -2.9033839236944914e-03</internalNodes>
          <leafValues>
            4.3635538220405579e-01 -3.6914318799972534e-01</leafValues></_>
        <_>
          <internalNodes>
            0 -1 107 2.3381094797514379e-04</internalNodes>
          <leafValues>
            1.7147889733314514e-01 -8.1756585836410522e-01</leafValues></_>
        <_>
          <internalNodes>
            0 -1 18 2.9876878485083580e-02</internalNodes>
          <leafValues>
            -2.2762726247310638e-01 7.4458074569702148e-01</leafValues></_>
        <_>
          <internalNodes>
            0 -1 24 2.1535039413720369e-03</internalNodes>
          <leafValues>
            -2.6657590270042419e-01 5.3707253932952881e-01</leafValues></_>
        <_>
          <internalNodes>
            0 -1 29 1.2543819611892104e-03</internalNodes>
          <leafValues>
            1.4516457915306091e-01 -9.0069335699081421e-01</leafValues></_>
        <_>
          <internalNodes>
            0 -1 79 -1.0927329771220684e-02</internalNodes>
          <leafValues>
            7.2790902853012085e-01 -2.2613409161567688e-01</leafValues></_>
        <_>
          <internalNodes>
            0 -1 3 7.3774112388491631e-03</internalNodes>
          <leafValues>
            1.8584334850311279e-01 -8.3017027378082275e-01</leafValues></_>
        <_>
          <internalNodes>
            0 -1 127 6.1465369071811438e-05</internalNodes>
          <leafValues>
            1.5428403019905090e-01 -7.5940501689910889e-01</leafValues></_></weakClassifiers></_>
    <!-- stage 16 -->
    <_>
      <maxWeakCount>11</maxWeakCount>
      <stageThreshold>-1.0682258605957031e+00</stageThreshold>
      <weakClassifiers>
        <_>
          <internalNodes>
            0 -1 60 -1.0056369937956333e-03</internalNodes>
          <leafValues>
            6.4624279737472534e-01 -4.5772594213485718e-01</leafValues></_>
        <_>
          <internalNodes>
            0 -1 121 -2.8233928605914116e-03</internalNodes>
          <leafValues>
            5.2622902393341064e-01 -3.0416801571846008e-01</leafValues></_>
        <_>
          <internalNodes>
            0 -1 86 3.1932134181261063e-02</internalNodes>
          <leafValues>
            -2.0151630043983459e-01 7.2940766811370850e-01</leafValues></_>
        <_>
          <internalNodes>
            0 -1 40 -9.6691779617685825e-05</internalNodes>
          <leafValues>
            3.9817893505096436e-01 -4.6309420466423035e-01</leafValues></_>
        <_>
          <internalNodes>
            0 -1 117 -4.2764113459270447e-05</internalNodes>
          <leafValues>
            -6.0644364356994629e-01 2.7436700463294983e-01</leafValues></_>
        <_>
          <internalNodes>
            0 -1 104 -1.4688521623611450e-02</internalNodes>
          <leafValues>
            8.0676060914993286e-01 -2.2068504989147186e-01</leafValues></_>
        <_>
          <internalNodes>
            0 -1 69 2.2210851311683655e-03</internalNodes>
          <leafValues>
            -2.3328903317451477e-01 6.4519500732421875e-01</leafValues></_>
        <_>
          <internalNodes>
            0 -1 110 5.9095531469210982e-04</internalNodes>
          <leafValues>
            1.7778693139553070e-01 -8.6923176050186157e-01</leafValues></_>
        <_>
          <internalNodes>
            0 -1 124 5.2640798458014615e-06</internalNodes>
          <leafValues>
            -4.9422535300254822e-01 2.7778714895248413e-01</leafValues></_>
        <_>
          <internalNodes>
            0 -1 65 -3.5468739224597812e-04</internalNodes>
          <leafValues>
            5.9022986888885498e-01 -2.2780776023864746e-01</leafValues></_>
        <_>
          <internalNodes>
            0 -1 76 1.2613039463758469e-02</internalNodes>
          <leafValues>
            1.7074535787105560e-01 -8.1136548519134521e-01</leafValues></_></weakClassifiers></_></stages>
  <features>
    <_>
      <rects>
        <_>
          0 0 2 22 -1.</_>
        <_>
          0 0 1 11 2.</_>
        <_>
          1 11 1 11 2.</_></rects>
      <tilted>0</tilted></_>
    <_>
      <rects>
        <_>
          0 0 5 6 -1.</_>
        <_>
          0 3 5 3 2.</_></rects>
      <tilted>0</tilted></_>
    <_>
      <rects>
        <_>
          0 0 12 8 -1.</_>
        <_>
          0 0 6 4 2.</_>
        <_>
          6 4 6 4 2.</_></rects>
      <tilted>0</tilted></_>
    <_>
      <rects>
        <_>
          0 0 38 4 -1.</_>
        <_>
          0 0 19 2 2.</_>
        <_>
          19 2 19 2 2.</_></rects>
      <tilted>0</tilted></_>
    <_>
      <rects>
        <_>
          0 0 40 32 -1.</_>
        <_>
          0 0 20 16 2.</_>
        <_>
          20 16 20 16 2.</_></rects>
      <tilted>0</tilted></_>
    <_>
      <rects>
        <_>
          0 1 2 4 -1.</_>
        <_>
          1 1 1 4 2.</_></rects>
      <tilted>0</tilted></_>
    <_>
      <rects>
        <_>
          0 1 2 5 -1.</_>
        <_>
          1 1 1 5 2.</_></rects>
      <tilted>0</tilted></_>
    <_>
      <rects>
        <_>
          0 2 2 38 -1.</_>
        <_>
          0 21 2 19 2.</_></rects>
      <tilted>0</tilted></_>
    <_>
      <rects>
        <_>
          0 3 18 37 -1.</_>
        <_>
          9 3 9 37 2.</_></rects>
      <tilted>0</tilted></_>
    <_>
      <rects>
        <_>
          0 4 1 12 -1.</_>
        <_>
          0 10 1 6 2.</_></rects>
      <tilted>0</tilted></_>
    <_>
      <rects>
        <_>
          0 4 40 6 -1.</_>
        <_>
          20 4 20 6 2.</_></rects>
      <tilted>0</tilted></_>
    <_>
      <rects>
        <_>
          0 6 8 6 -1.</_>
        <_>
          4 6 4 6 2.</_></rects>
      <tilted>0</tilted></_>
    <_>
      <rects>
        <_>
          0 6 40 30 -1.</_>
        <_>
          0 6 20 15 2.</_>
        <_>
          20 21 20 15 2.</_></rects>
      <tilted>0</tilted></_>
    <_>
      <rects>
        <_>
          0 8 8 7 -1.</_>
        <_>
          4 8 4 7 2.</_></rects>
      <tilted>0</tilted></_>
    <_>
      <rects>
        <_>
          0 11 8 25 -1.</_>
        <_>
          4 11 4 25 2.</_></rects>
      <tilted>0</tilted></_>
    <_>
      <rects>
        <_>
          0 12 1 18 -1.</_>
        <_>
          0 21 1 9 2.</_></rects>
      <tilted>0</tilted></_>
    <_>
      <rects>
        <_>
          0 12 4 7 -1.</_>
        <_>
          2 12 2 7 2.</_></rects>
      <tilted>0</tilted></_>
    <_>
      <rects>
        <_>
          0 13 4 15 -1.</_>
        <_>
          2 13 2 15 2.</_></rects>
      <tilted>0</tilted></_>
    <_>
      <rects>
        <_>
          0 13 6 17 -1.</_>
        <_>
          3 13 3 17 2.</_></rects>
      <tilted>0</tilted></_>
    <_>
      <rects>
        <_>
          0 13 8 18 -1.</_>
        <_>
          4 13 4 18 2.</_></rects>
      <tilted>0</tilted></_>
    <_>
      <rects>
        <_>
          0 13 8 19 -1.</_>
        <_>
          4 13 4 19 2.</_></rects>
      <tilted>0</tilted></_>
    <_>
      <rects>
        <_>
          0 15 1 12 -1.</_>
        <_>
          0 21 1 6 2.</_></rects>
      <tilted>0</tilted></_>
    <_>
      <rects>
        <_>
          0 17 24 3 -1.</_>
        <_>
          0 18 24 1 2.</_></rects>
      <tilted>0</tilted></_>
    <_>
      <rects>
        <_>
          0 18 4 15 -1.</_>
        <_>
          2 18 2 15 2.</_></rects>
      <tilted>0</tilted></_>
    <_>
      <rects>
        <_>
          0 21 4 18 -1.</_>
        <_>
          0 21 2 9 2.</_>
        <_>
          2 30 2 9 2.</_></rects>
      <tilted>0</tilted></_>
    <_>
      <rects>
        <_>
          0 26 1 6 -1.</_>
        <_>
          0 29 1 3 2.</_></rects>
      <tilted>0</tilted></_>
    <_>
      <rects>
        <_>
          0 27 6 5 -1.</_>
        <_>
          3 27 3 5 2.</_></rects>
      <tilted>0</tilted></_>
    <_>
      <rects>
        <_>
          0 29 2 4 -1.</_>
        <_>
          0 31 2 2 2.</_></rects>
      <tilted>0</tilted></_>
    <_>
      <rects>
        <_>
          0 32 1 2 -1.</_>
        <_>
          0 33 1 1 2.</_></rects>
      <tilted>0</tilted></_>
    <_>
      <rects>
        <_>
          0 33 4 4 -1.</_>
        <_>
          2 33 2 4 2.</_></rects>
      <tilted>0</tilted></_>
    <_>
      <rects>
        <_>
          0 34 8 2 -1.</_>
        <_>
          0 34 4 1 2.</_>
        <_>
          4 35 4 1 2.</_></rects>
      <tilted>0</tilted></_>
    <_>
      <rects>
        <_>
          0 36 2 4 -1.</_>
        <_>
          1 36 1 4 2.</_></rects>
      <tilted>0</tilted></_>
    <_>
      <rects>
        <_>
          0 36 7 4 -1.</_>
        <_>
          0 38 7 2 2.</_></rects>
      <tilted>0</tilted></_>
    <_>
      <rects>
        <_>
          0 36 16 4 -1.</_>
        <_>
          0 36 8 2 2.</_>
        <_>
          8 38 8 2 2.</_></rects>
      <tilted>0</tilted></_>
    <_>
      <rects>
        <_>
          0 39 6 1 -1.</_>
        <_>
          3 39 3 1 2.</_></rects>
      <tilted>0</tilted></_>
    <_>
      <rects>
        <_>
          0 39 38 1 -1.</_>
        <_>
          19 39 19 1 2.</_></rects>
      <tilted>0</tilted></_>
    <_>
      <rects>
        <_>
          1 0 5 39 -1.</_>
        <_>
          1 13 5 13 2.</_></rects>
      <tilted>0</tilted></_>
    <_>
      <rects>
        <_>
          1 4 1 4 -1.</_>
        <_>
          1 6 1 2 2.</_></rects>
      <tilted>0</tilted></_>
    <_>
      <rects>
        <_>
          1 7 3 12 -1.</_>
        <_>
          1 13 3 6 2.</_></rects>
      <tilted>0</tilted></_>
    <_>
      <rects>
        <_>
          1 13 4 16 -1.</_>
        <_>
          3 13 2 16 2.</_></rects>
      <tilted>0</tilted></_>
    <_>
      <rects>
        <_>
          1 28 2 3 -1.</_>
        <_>
          2 28 1 3 2.</_></rects>
      <tilted>0</tilted></_>
    <_>
      <rects>
        <_>
          1 32 1 4 -1.</_>
        <_>
          1 34 1 2 2.</_></rects>
      <tilted>0</tilted></_>
    <_>
      <rects>
        <_>
          1 37 26 2 -1.</_>
        <_>
          14 37 13 2 2.</_></rects>
      <tilted>0</tilted></_>
    <_>
      <rects>
        <_>
          2 0 36 24 -1.</_>
        <_>
          2 12 36 12 2.</_></rects>
      <tilted>0</tilted></_>
    <_>
      <rects>
        <_>
          2 2 38 6 -1.</_>
        <_>
          21 2 19 6 2.</_></rects>
      <tilted>0</tilted></_>
    <_>
      <rects>
        <_>
          2 3 36 37 -1.</_>
        <_>
          20 3 18 37 2.</_></rects>
      <tilted>0</tilted></_>
    <_>
      <rects>
        <_>
          2 7 2 16 -1.</_>
        <_>
          2 7 1 8 2.</_>
        <_>
          3 15 1 8 2.</_></rects>
      <tilted>0</tilted></_>
    <_>
      <rects>
        <_>
          2 31 6 4 -1.</_>
        <_>
          5 31 3 4 2.</_></rects>
      <tilted>0</tilted></_>
    <_>
      <rects>
        <_>
          2 38 38 2 -1.</_>
        <_>
          21 38 19 2 2.</_></rects>
      <tilted>0</tilted></_>
    <_>
      <rects>
        <_>
          3 0 36 1 -1.</_>
        <_>
          21 0 18 1 2.</_></rects>
      <tilted>0</tilted></_>
    <_>
      <rects>
        <_>
          3 30 8 4 -1.</_>
        <_>
          7 30 4 4 2.</_></rects>
      <tilted>0</tilted></_>
    <_>
      <rects>
        <_>
          3 31 4 4 -1.</_>
        <_>
          3 33 4 2 2.</_></rects>
      <tilted>0</tilted></_>
    <_>
      <rects>
        <_>
          3 36 4 2 -1.</_>
        <_>
          3 36 2 1 2.</_>
        <_>
          5 37 2 1 2.</_></rects>
      <tilted>0</tilted></_>
    <_>
      <rects>
        <_>
          4 0 32 1 -1.</_>
        <_>
          20 0 16 1 2.</_></rects>
      <tilted>0</tilted></_>
    <_>
      <rects>
        <_>
          4 2 4 10 -1.</_>
        <_>
          4 7 4 5 2.</_></rects>
      <tilted>0</tilted></_>
    <_>
      <rects>
        <_>
          4 5 4 8 -1.</_>
        <_>
          4 5 2 4 2.</_>
        <_>
          6 9 2 4 2.</_></rects>
      <tilted>0</tilted></_>
    <_>
      <rects>
        <_>
          4 9 2 4 -1.</_>
        <_>
          4 9 1 2 2.</_>
        <_>
          5 11 1 2 2.</_></rects>
      <tilted>0</tilted></_>
    <_>
      <rects>
        <_>
          4 33 6 4 -1.</_>
        <_>
          7 33 3 4 2.</_></rects>
      <tilted>0</tilted></_>
    <_>
      <rects>
        <_>
          4 33 7 6 -1.</_>
        <_>
          4 36 7 3 2.</_></rects>
      <tilted>0</tilted></_>
    <_>
      <rects>
        <_>
          4 39 34 1 -1.</_>
        <_>
          21 39 17 1 2.</_></rects>
      <tilted>0</tilted></_>
    <_>
      <rects>
        <_>
          5 0 24 4 -1.</_>
        <_>
          17 0 12 4 2.</_></rects>
      <tilted>0</tilted></_>
    <_>
      <rects>
        <_>
          5 32 32 8 -1.</_>
        <_>
          5 36 32 4 2.</_></rects>
      <tilted>0</tilted></_>
    <_>
      <rects>
        <_>
          5 37 10 3 -1.</_>
        <_>
          10 37 5 3 2.</_></rects>
      <tilted>0</tilted></_>
    <_>
      <rects>
        <_>
          6 28 30 11 -1.</_>
        <_>
          21 28 15 11 2.</_></rects>
      <tilted>0</tilted></_>
    <_>
      <rects>
        <_>
          7 0 29 10 -1.</_>
        <_>
          7 5 29 5 2.</_></rects>
      <tilted>0</tilted></_>
    <_>
      <rects>
        <_>
          7 27 2 4 -1.</_>
        <_>
          7 27 1 2 2.</_>
        <_>
          8 29 1 2 2.</_></rects>
      <tilted>0</tilted></_>
    <_>
      <rects>
        <_>
          8 0 14 3 -1.</_>
        <_>
          15 0 7 3 2.</_></rects>
      <tilted>0</tilted></_>
    <_>
      <rects>
        <_>
          8 0 9 12 -1.</_>
        <_>
          8 6 9 6 2.</_></rects>
      <tilted>0</tilted></_>
    <_>
      <rects>
        <_>
          8 35 18 1 -1.</_>
        <_>
          14 35 6 1 2.</_></rects>
      <tilted>0</tilted></_>
    <_>
      <rects>
        <_>
          9 2 8 4 -1.</_>
        <_>
          9 2 4 2 2.</_>
        <_>
          13 4 4 2 2.</_></rects>
      <tilted>0</tilted></_>
    <_>
      <rects>
        <_>
          9 31 19 8 -1.</_>
        <_>
          9 35 19 4 2.</_></rects>
      <tilted>0</tilted></_>
    <_>
      <rects>
        <_>
          10 0 5 4 -1.</_>
        <_>
          10 2 5 2 2.</_></rects>
      <tilted>0</tilted></_>
    <_>
      <rects>
        <_>
          10 34 17 6 -1.</_>
        <_>
          10 37 17 3 2.</_></rects>
      <tilted>0</tilted></_>
    <_>
      <rects>
        <_>
          12 38 4 2 -1.</_>
        <_>
          12 39 4 1 2.</_></rects>
      <tilted>0</tilted></_>
    <_>
      <rects>
        <_>
          13 1 14 6 -1.</_>
        <_>
          20 1 7 6 2.</_></rects>
      <tilted>0</tilted></_>
    <_>
      <rects>
        <_>
          15 0 14 6 -1.</_>
        <_>
          15 3 14 3 2.</_></rects>
      <tilted>0</tilted></_>
    <_>
      <rects>
        <_>
          15 31 12 9 -1.</_>
        <_>
          21 31 6 9 2.</_></rects>
      <tilted>0</tilted></_>
    <_>
      <rects>
        <_>
          15 35 7 4 -1.</_>
        <_>
          15 37 7 2 2.</_></rects>
      <tilted>0</tilted></_>
    <_>
      <rects>
        <_>
          16 0 5 2 -1.</_>
        <_>
          16 1 5 1 2.</_></rects>
      <tilted>0</tilted></_>
    <_>
      <rects>
        <_>
          16 0 24 4 -1.</_>
        <_>
          16 0 12 2 2.</_>
        <_>
          28 2 12 2 2.</_></rects>
      <tilted>0</tilted></_>
    <_>
      <rects>
        <_>
          16 2 7 4 -1.</_>
        <_>
          16 4 7 2 2.</_></rects>
      <tilted>0</tilted></_>
    <_>
      <rects>
        <_>
          17 0 11 6 -1.</_>
        <_>
          17 3 11 3 2.</_></rects>
      <tilted>0</tilted></_>
    <_>
      <rects>
        <_>
          22 1 18 4 -1.</_>
        <_>
          31 1 9 4 2.</_></rects>
      <tilted>0</tilted></_>
    <_>
      <rects>
        <_>
          24 0 4 4 -1.</_>
        <_>
          24 2 4 2 2.</_></rects>
      <tilted>0</tilted></_>
    <_>
      <rects>
        <_>
          24 28 12 10 -1.</_>
        <_>
          24 28 6 5 2.</_>
        <_>
          30 33 6 5 2.</_></rects>
      <tilted>0</tilted></_>
    <_>
      <rects>
        <_>
          25 36 7 4 -1.</_>
        <_>
          25 38 7 2 2.</_></rects>
      <tilted>0</tilted></_>
    <_>
      <rects>
        <_>
          26 0 10 14 -1.</_>
        <_>
          26 7 10 7 2.</_></rects>
      <tilted>0</tilted></_>
    <_>
      <rects>
        <_>
          26 3 6 6 -1.</_>
        <_>
          26 3 3 3 2.</_>
        <_>
          29 6 3 3 2.</_></rects>
      <tilted>0</tilted></_>
    <_>
      <rects>
        <_>
          26 36 3 2 -1.</_>
        <_>
          27 36 1 2 2.</_></rects>
      <tilted>0</tilted></_>
    <_>
      <rects>
        <_>
          27 29 8 10 -1.</_>
        <_>
          27 29 4 5 2.</_>
        <_>
          31 34 4 5 2.</_></rects>
      <tilted>0</tilted></_>
    <_>
      <rects>
        <_>
          28 10 12 23 -1.</_>
        <_>
          34 10 6 23 2.</_></rects>
      <tilted>0</tilted></_>
    <_>
      <rects>
        <_>
          28 33 10 3 -1.</_>
        <_>
          33 33 5 3 2.</_></rects>
      <tilted>0</tilted></_>
    <_>
      <rects>
        <_>
          29 1 10 6 -1.</_>
        <_>
          29 1 5 3 2.</_>
        <_>
          34 4 5 3 2.</_></rects>
      <tilted>0</tilted></_>
    <_>
      <rects>
        <_>
          30 32 10 8 -1.</_>
        <_>
          30 32 5 4 2.</_>
        <_>
          35 36 5 4 2.</_></rects>
      <tilted>0</tilted></_>
    <_>
      <rects>
        <_>
          31 3 4 8 -1.</_>
        <_>
          31 3 2 4 2.</_>
        <_>
          33 7 2 4 2.</_></rects>
      <tilted>0</tilted></_>
    <_>
      <rects>
        <_>
          31 24 6 10 -1.</_>
        <_>
          31 24 3 5 2.</_>
        <_>
          34 29 3 5 2.</_></rects>
      <tilted>0</tilted></_>
    <_>
      <rects>
        <_>
          31 26 8 9 -1.</_>
        <_>
          35 26 4 9 2.</_></rects>
      <tilted>0</tilted></_>
    <_>
      <rects>
        <_>
          31 33 3 6 -1.</_>
        <_>
          31 36 3 3 2.</_></rects>
      <tilted>0</tilted></_>
    <_>
      <rects>
        <_>
          33 1 5 10 -1.</_>
        <_>
          33 6 5 5 2.</_></rects>
      <tilted>0</tilted></_>
    <_>
      <rects>
        <_>
          33 8 6 3 -1.</_>
        <_>
          36 8 3 3 2.</_></rects>
      <tilted>0</tilted></_>
    <_>
      <rects>
        <_>
          33 38 1 2 -1.</_>
        <_>
          33 39 1 1 2.</_></rects>
      <tilted>0</tilted></_>
    <_>
      <rects>
        <_>
          34 1 4 2 -1.</_>
        <_>
          36 1 2 2 2.</_></rects>
      <tilted>0</tilted></_>
    <_>
      <rects>
        <_>
          34 1 3 39 -1.</_>
        <_>
          34 14 3 13 2.</_></rects>
      <tilted>0</tilted></_>
    <_>
      <rects>
        <_>
          34 5 6 27 -1.</_>
        <_>
          37 5 3 27 2.</_></rects>
      <tilted>0</tilted></_>
    <_>
      <rects>
        <_>
          34 18 6 8 -1.</_>
        <_>
          37 18 3 8 2.</_></rects>
      <tilted>0</tilted></_>
    <_>
      <rects>
        <_>
          34 19 4 14 -1.</_>
        <_>
          34 19 2 7 2.</_>
        <_>
          36 26 2 7 2.</_></rects>
      <tilted>0</tilted></_>
    <_>
      <rects>
        <_>
          34 30 6 3 -1.</_>
        <_>
          37 30 3 3 2.</_></rects>
      <tilted>0</tilted></_>
    <_>
      <rects>
        <_>
          34 37 6 2 -1.</_>
        <_>
          34 37 3 1 2.</_>
        <_>
          37 38 3 1 2.</_></rects>
      <tilted>0</tilted></_>
    <_>
      <rects>
        <_>
          34 38 2 2 -1.</_>
        <_>
          34 38 1 1 2.</_>
        <_>
          35 39 1 1 2.</_></rects>
      <tilted>0</tilted></_>
    <_>
      <rects>
        <_>
          35 6 4 6 -1.</_>
        <_>
          37 6 2 6 2.</_></rects>
      <tilted>0</tilted></_>
    <_>
      <rects>
        <_>
          35 35 5 2 -1.</_>
        <_>
          35 36 5 1 2.</_></rects>
      <tilted>0</tilted></_>
    <_>
      <rects>
        <_>
          36 5 4 2 -1.</_>
        <_>
          36 6 4 1 2.</_></rects>
      <tilted>0</tilted></_>
    <_>
      <rects>
        <_>
          36 12 4 15 -1.</_>
        <_>
          38 12 2 15 2.</_></rects>
      <tilted>0</tilted></_>
    <_>
      <rects>
        <_>
          36 23 2 1 -1.</_>
        <_>
          37 23 1 1 2.</_></rects>
      <tilted>0</tilted></_>
    <_>
      <rects>
        <_>
          36 26 4 10 -1.</_>
        <_>
          36 26 2 5 2.</_>
        <_>
          38 31 2 5 2.</_></rects>
      <tilted>0</tilted></_>
    <_>
      <rects>
        <_>
          36 26 4 8 -1.</_>
        <_>
          36 30 4 4 2.</_></rects>
      <tilted>0</tilted></_>
    <_>
      <rects>
        <_>
          36 33 2 2 -1.</_>
        <_>
          37 33 1 2 2.</_></rects>
      <tilted>0</tilted></_>
    <_>
      <rects>
        <_>
          36 34 2 2 -1.</_>
        <_>
          37 34 1 2 2.</_></rects>
      <tilted>0</tilted></_>
    <_>
      <rects>
        <_>
          37 2 1 2 -1.</_>
        <_>
          37 3 1 1 2.</_></rects>
      <tilted>0</tilted></_>
    <_>
      <rects>
        <_>
          37 2 3 38 -1.</_>
        <_>
          37 21 3 19 2.</_></rects>
      <tilted>0</tilted></_>
    <_>
      <rects>
        <_>
          37 3 3 4 -1.</_>
        <_>
          37 5 3 2 2.</_></rects>
      <tilted>0</tilted></_>
    <_>
      <rects>
        <_>
          37 9 2 12 -1.</_>
        <_>
          37 15 2 6 2.</_></rects>
      <tilted>0</tilted></_>
    <_>
      <rects>
        <_>
          37 34 2 4 -1.</_>
        <_>
          37 36 2 2 2.</_></rects>
      <tilted>0</tilted></_>
    <_>
      <rects>
        <_>
          37 36 3 1 -1.</_>
        <_>
          38 36 1 1 2.</_></rects>
      <tilted>0</tilted></_>
    <_>
      <rects>
        <_>
          37 36 3 4 -1.</_>
        <_>
          37 38 3 2 2.</_></rects>
      <tilted>0</tilted></_>
    <_>
      <rects>
        <_>
          37 38 2 2 -1.</_>
        <_>
          37 39 2 1 2.</_></rects>
      <tilted>0</tilted></_>
    <_>
      <rects>
        <_>
          38 0 2 2 -1.</_>
        <_>
          39 0 1 2 2.</_></rects>
      <tilted>0</tilted></_>
    <_>
      <rects>
        <_>
          38 7 2 2 -1.</_>
        <_>
          38 7 1 1 2.</_>
        <_>
          39 8 1 1 2.</_></rects>
      <tilted>0</tilted></_>
    <_>
      <rects>
        <_>
          38 13 2 8 -1.</_>
        <_>
          39 13 1 8 2.</_></rects>
      <tilted>0</tilted></_>
    <_>
      <rects>
        <_>
          38 13 2 16 -1.</_>
        <_>
          39 13 1 16 2.</_></rects>
      <tilted>0</tilted></_>
    <_>
      <rects>
        <_>
          38 31 1 8 -1.</_>
        <_>
          38 35 1 4 2.</_></rects>
      <tilted>0</tilted></_>
    <_>
      <rects>
        <_>
          38 38 2 2 -1.</_>
        <_>
          38 38 1 1 2.</_>
        <_>
          39 39 1 1 2.</_></rects>
      <tilted>0</tilted></_>
    <_>
      <rects>
        <_>
          39 6 1 30 -1.</_>
        <_>
          39 21 1 15 2.</_></rects>
      <tilted>0</tilted></_></features></cascade>
</opencv_storage>
